-0.00755401	0.0164359	-0.0445712	-0.0300435	0.0449502	-0.0172112	0.0171703	0.00584858	0.0210685	0.0480952	0.00446242	0.00408225	-0.0408489	0.00792504	-0.035355	-0.0434066	-0.0455656	-0.0180763	0.010867	0.0461869	0.0126142	-0.0298036	-0.0296814	0.038473	-0.042678	0.0216408	-0.00532157	0.0176891	-0.0202868	0.0368233	0.0154805	0.0293349
0.450748	0.483691	0.466368	-0.418644	-0.389865	0.383045	0.370656	0.417369	0.422151	0.389839	0.484596	-0.498405	0.34107	-0.546089	0.461945	-0.481028	-0.437768	-0.450193	-0.412522	-0.457363	-0.492819	-0.426767	0.477331	0.460543	0.408594	-0.483808	-0.471171	-0.496332	0.413021	0.409074	-0.49267	0.494212
0.485472	0.48462	0.422578	-0.407332	-0.407533	0.461628	0.455116	0.488936	0.43722	0.478537	0.388495	-0.464421	0.466051	-0.376842	0.437398	-0.428092	-0.442083	-0.378397	-0.477009	-0.469695	-0.391888	-0.366746	0.455691	0.381353	0.455236	-0.464383	-0.470298	-0.35543	0.450004	0.344865	-0.496656	0.345722
0.460233	0.324484	0.475864	-0.532044	-0.498649	0.511566	0.500433	0.425767	0.483917	0.509151	0.345681	-0.395881	0.410638	-0.537401	0.474412	-0.209596	-0.426277	-0.40238	-0.51187	-0.488103	-0.406359	-0.407505	0.499276	0.393226	0.472591	-0.439969	-0.483977	-0.379359	0.421717	0.426358	-0.425435	0.457522
0.495937	0.397315	0.428658	-0.4461	-0.492238	0.416309	0.448304	0.403311	0.399456	0.407808	0.504048	-0.419304	0.446341	-0.259925	0.446839	-0.450421	-0.416086	-0.438964	-0.430905	-0.407635	-0.392476	-0.515952	0.432452	0.333924	0.421158	-0.454405	-0.4764	-0.427818	0.482572	0.476695	-0.388711	0.4426
0.446169	0.415534	0.428547	-0.427166	-0.440506	0.404465	0.471226	0.448189	0.41542	0.330453	0.335833	-0.40416	0.410393	-0.363361	0.326979	-0.297161	-0.398758	-0.275829	-0.355704	-0.412896	-0.398527	-0.472689	0.34979	0.301514	0.343051	-0.407269	-0.388444	-0.341413	0.356389	0.347506	-0.42027	0.359461
0.404144	0.449034	0.467021	-0.440841	-0.375819	0.491798	0.416795	0.416771	0.411935	0.47147	0.438201	-0.376143	0.373639	-0.262339	0.376023	-0.435539	-0.481754	-0.445372	-0.478721	-0.357811	-0.433486	-0.533002	0.433953	0.463513	0.405429	-0.374479	-0.406671	-0.420413	0.406505	0.489382	-0.413939	0.454784
0.473903	0.469351	0.412533	-0.413279	-0.489003	0.458647	0.452437	0.465061	0.465444	0.379277	0.463709	-0.422453	0.43529	-0.399013	0.435695	-0.520711	-0.50048	-0.501478	-0.477217	-0.408803	-0.408758	-0.391994	0.359523	0.428481	0.408956	-0.488763	-0.415698	-0.393327	0.467885	0.391215	-0.472339	0.382431
0.419861	0.384442	0.50954	-0.50526	-0.4909	0.4536	0.403376	0.465575	0.467283	0.375559	0.421808	-0.391206	0.405632	-0.419363	0.411735	-0.452298	-0.465247	-0.408872	-0.463178	-0.381492	-0.396884	-0.324862	0.515891	0.372648	0.401624	-0.417439	-0.477889	-0.50153	0.431096	0.497165	-0.44096	0.360881
0.446846	0.498474	0.422149	-0.300255	-0.390406	0.521204	0.257805	0.446266	0.361529	0.43093	0.399386	-0.431196	0.480746	-0.270506	0.467597	-0.409372	-0.264431	-0.159678	-0.443184	-0.455148	-0.49753	-0.457754	0.467999	0.400732	0.462528	-0.401023	-0.409875	-0.392854	0.489653	0.431092	-0.456107	0.322311
0.472872	0.390114	0.439369	-0.336336	-0.404062	0.432154	0.414396	0.418382	0.33901	0.414304	0.448245	-0.409765	0.43756	-0.299226	0.44371	-0.294343	-0.404916	-0.235543	-0.409825	-0.421984	-0.423964	-0.47065	0.34574	0.422123	0.37894	-0.362926	-0.404642	-0.374841	0.366757	0.45212	-0.40434	0.465544
0.347062	0.391339	0.34045	-0.309917	-0.358428	0.474224	0.383738	0.445515	0.365598	0.316434	0.467919	-0.36528	0.406618	-0.124142	0.405989	-0.28631	-0.412999	-0.239768	-0.462795	-0.310209	-0.417787	-0.480964	0.173642	0.498814	0.387599	-0.300078	-0.27407	-0.428082	0.396373	0.401958	-0.44741	0.506989
0.413399	0.426956	0.466929	-0.402275	-0.378185	0.487549	0.469663	0.455178	0.414681	0.352509	0.5013	-0.418336	0.491017	-0.341599	0.382226	-0.433454	-0.412861	-0.482348	-0.440718	-0.424421	-0.367839	-0.393176	0.458118	0.403686	0.423724	-0.452056	-0.424257	-0.34553	0.478058	0.435277	-0.382098	0.319191
0.448404	0.453409	0.473949	-0.408361	-0.461557	0.423766	0.383934	0.455514	0.510013	0.399862	0.411155	-0.40039	0.365457	-0.447474	0.486249	-0.463178	-0.444344	-0.497756	-0.399067	-0.49323	-0.425433	-0.520487	0.455261	0.427887	0.352565	-0.498089	-0.423272	-0.388954	0.41137	0.502482	-0.478223	0.445704
0.43354	0.44717	0.406064	-0.496427	-0.474893	0.347558	0.390227	0.424588	0.435605	0.499177	0.41104	-0.494448	0.382365	-0.468337	0.437198	-0.539938	-0.385992	-0.337685	-0.407926	-0.454878	-0.501891	-0.458403	0.414062	0.405076	0.470899	-0.455084	-0.415724	-0.414835	0.412585	0.49158	-0.464509	0.418007
0.466155	0.329478	0.417974	-0.438606	-0.481143	0.373084	0.477416	0.464107	0.410396	0.398935	0.485347	-0.417454	0.401525	-0.470075	0.456418	-0.564061	-0.422798	-0.495103	-0.35416	-0.419239	-0.494774	-0.358694	0.47508	0.421147	0.507365	-0.431033	-0.482562	-0.465108	0.497501	0.489179	-0.492552	0.416762
0.44772	0.372192	0.496827	-0.376312	-0.508291	0.428483	0.406929	0.480938	0.411629	0.463288	0.395658	-0.38205	0.438024	-0.438198	0.410725	-0.408713	-0.514955	-0.369615	-0.432887	-0.357219	-0.467272	-0.495396	0.43821	0.439743	0.51051	-0.491511	-0.473841	-0.436513	0.457111	0.477433	-0.471462	0.486309
0.391219	0.464161	0.486259	-0.510655	-0.40381	0.386565	0.449641	0.447807	0.474811	0.414751	0.466382	-0.414212	0.380955	-0.447078	0.48814	-0.373006	-0.458331	-0.491271	-0.391419	-0.481438	-0.428363	-0.428803	0.395956	0.492021	0.463046	-0.408745	-0.441606	-0.435051	0.492777	0.391067	-0.47323	0.371002
0.469381	0.373207	0.415418	-0.368041	-0.392717	0.471392	0.371452	0.403369	0.467648	0.474221	0.354155	-0.470967	0.434792	-0.41928	0.377699	-0.420849	-0.492326	-0.483702	-0.459832	-0.361893	-0.438319	-0.442577	0.355035	0.35981	0.430033	-0.44751	-0.479688	-0.410732	0.384716	0.465529	-0.381976	0.405474
0.45847	0.418882	0.48307	-0.345357	-0.409813	0.470755	0.386424	0.4062	0.364402	0.408848	0.395322	-0.367543	0.454294	-0.365542	0.501547	-0.445821	-0.497051	-0.502116	-0.435822	-0.398752	-0.45918	-0.415734	0.517804	0.428548	0.437413	-0.413819	-0.347686	-0.371456	0.393257	0.450435	-0.375975	0.468646
0.426174	0.400641	0.432684	-0.438148	-0.430319	0.400072	0.425819	0.456437	0.459908	0.453033	0.458561	-0.403479	0.440327	-0.480596	0.494547	-0.503455	-0.394191	-0.471921	-0.479465	-0.487807	-0.500195	-0.418651	0.433804	0.45577	0.450699	-0.428891	-0.487421	-0.450511	0.454174	0.374433	-0.390832	0.441341
0.43268	0.359801	0.4521	-0.400379	-0.473365	0.432242	0.320118	0.390065	0.417062	0.459953	0.407706	-0.424266	0.435894	-0.495398	0.389436	-0.441602	-0.375821	-0.32154	-0.369722	-0.412533	-0.393809	-0.419478	0.411552	0.355414	0.464311	-0.440792	-0.403096	-0.38517	0.442031	0.402207	-0.468081	0.447119
0.440502	0.433357	0.492146	-0.389379	-0.437266	0.440081	0.513726	0.427563	0.465572	0.393551	0.472075	-0.343573	0.508092	-0.451507	0.481077	-0.486244	-0.471585	-0.479127	-0.430729	-0.439181	-0.498243	-0.430898	0.470536	0.399947	0.510206	-0.417742	-0.421115	-0.410969	0.446541	0.362354	-0.494546	0.452389
0.343591	0.426802	0.265657	-0.459557	-0.380118	0.406466	0.473075	0.36164	0.324007	0.49084	0.322566	-0.49028	0.430351	-0.290085	0.36567	-0.321348	-0.318709	-0.449082	-0.323099	-0.450714	-0.221593	-0.292539	0.168925	0.510277	0.434679	-0.405592	-0.347748	-0.448155	0.421134	0.434898	-0.496884	0.442917
0.441584	0.467859	0.435045	-0.50081	-0.481546	0.425204	0.389316	0.449464	0.510476	0.430212	0.523699	-0.497644	0.471758	-0.517776	0.524477	-0.46365	-0.441639	-0.451539	-0.443189	-0.365104	-0.456827	-0.489081	0.479869	0.495741	0.511804	-0.426691	-0.478363	-0.486556	0.433374	0.46007	-0.435465	0.458258
0.433912	0.384311	0.313596	-0.353843	-0.356481	0.457054	0.268448	0.436968	0.325546	0.407416	0.389638	-0.434938	0.392053	-0.145821	0.31369	-0.398912	-0.33174	-0.192134	-0.317361	-0.392124	-0.42943	-0.270168	0.321833	0.404445	0.30125	-0.299074	-0.376343	-0.378814	0.426977	0.385316	-0.454705	0.401243
0.378432	0.380579	0.387091	-0.47227	-0.388005	0.357123	0.41611	0.414571	0.442691	0.428823	0.472308	-0.47488	0.511442	-0.448617	0.505742	-0.527454	-0.476101	-0.408637	-0.470583	-0.393462	-0.469888	-0.472757	0.3874	0.381957	0.410147	-0.427531	-0.366272	-0.474892	0.449874	0.442549	-0.420962	0.466618
0.484332	0.404047	0.459317	-0.459886	-0.432551	0.469377	0.511865	0.436003	0.482815	0.441328	0.502104	-0.420799	0.416293	-0.496433	0.507928	-0.417673	-0.443869	-0.440474	-0.399134	-0.465201	-0.514589	-0.455703	0.463641	0.44044	0.409733	-0.469894	-0.393935	-0.497436	0.476398	0.426605	-0.485447	0.474619
0.403939	0.446907	0.446034	-0.432906	-0.407052	0.459223	0.49017	0.497638	0.426279	0.384327	0.393477	-0.445968	0.39026	-0.426522	0.401193	-0.457401	-0.475122	-0.428572	-0.494985	-0.397484	-0.445216	-0.368531	0.375443	0.454559	0.478908	-0.388566	-0.428242	-0.433818	0.497267	0.399455	-0.395934	0.465081
0.485594	0.470394	0.469173	-0.472608	-0.420858	0.424435	0.406947	0.485925	0.491838	0.44774	0.445666	-0.443265	0.449367	-0.444073	0.505159	-0.365787	-0.397529	-0.428309	-0.425503	-0.460833	-0.509487	-0.494717	0.475609	0.4197	0.512641	-0.403403	-0.49274	-0.426849	0.490518	0.405567	-0.49978	0.426881
0.396205	0.507356	0.440847	-0.461935	-0.397204	0.508121	0.41124	0.484511	0.429276	0.437594	0.462931	-0.473987	0.397444	-0.466093	0.499061	-0.530809	-0.328187	-0.528501	-0.405494	-0.441344	-0.489685	-0.486473	0.48132	0.533684	0.496897	-0.429798	-0.450363	-0.438417	0.444389	0.465743	-0.425505	0.341313
0.416643	0.454578	0.487759	-0.489772	-0.47331	0.414244	0.452788	0.484813	0.438896	0.42856	0.452488	-0.356552	0.458007	-0.43943	0.446856	-0.427389	-0.509274	-0.458935	-0.486047	-0.378311	-0.471499	-0.395382	0.450429	0.391044	0.49681	-0.442873	-0.376587	-0.404286	0.417297	0.500645	-0.452154	0.472934
0.421441	0.372868	0.486642	-0.526955	-0.451168	0.388345	0.407843	0.467032	0.512657	0.461843	0.455426	-0.4881	0.466933	-0.506858	0.482286	-0.509791	-0.487609	-0.502334	-0.446488	-0.428295	-0.435433	-0.411743	0.450529	0.441534	0.49677	-0.398839	-0.458685	-0.431328	0.425428	0.336061	-0.494083	0.367214
0.483335	0.49002	0.49312	-0.416316	-0.479001	0.373261	0.435334	0.383257	0.418028	0.434506	0.47437	-0.377709	0.42363	-0.418488	0.405638	-0.434017	-0.405173	-0.479414	-0.466607	-0.364243	-0.394532	-0.404124	0.470395	0.297433	0.401539	-0.440499	-0.501139	-0.503875	0.454417	0.484781	-0.366592	0.480921
0.481564	0.382637	0.509951	-0.47018	-0.516293	0.494628	0.349666	0.470439	0.457171	0.415508	0.338458	-0.504599	0.452263	-0.455318	0.461241	-0.424773	-0.360719	-0.520452	-0.485569	-0.389507	-0.494304	-0.402649	0.353123	0.441113	0.389701	-0.389969	-0.361416	-0.345773	0.489083	0.378653	-0.415611	0.478861
0.463193	0.418669	0.494028	-0.510152	-0.436222	0.390778	0.406401	0.502589	0.444262	0.451485	0.410518	-0.39946	0.42914	-0.480528	0.427463	-0.422875	-0.388906	-0.415083	-0.456604	-0.424515	-0.461745	-0.395669	0.391845	0.500783	0.394247	-0.40373	-0.399574	-0.462758	0.448119	0.396985	-0.48469	0.406264
0.51123	0.483576	0.424833	-0.394611	-0.478138	0.379993	0.353059	0.400066	0.480284	0.403127	0.533856	-0.391035	0.523414	-0.39358	0.440023	-0.530484	-0.451286	-0.438278	-0.444574	-0.494402	-0.477623	-0.314698	0.422697	0.466721	0.475615	-0.456348	-0.414178	-0.45359	0.497698	0.444345	-0.513291	0.339129
0.459245	0.460396	0.361186	-0.353864	-0.395856	0.387729	0.405411	0.459045	0.428892	0.382035	0.425635	-0.451853	0.434578	-0.519558	0.371606	-0.468009	-0.429305	-0.489311	-0.434301	-0.453336	-0.458659	-0.47673	0.462163	0.448695	0.459605	-0.415354	-0.459814	-0.390798	0.471986	0.439731	-0.383425	0.422738
0.416426	0.416792	0.482391	-0.421671	-0.431392	0.464983	0.449587	0.464045	0.395884	0.471024	0.48786	-0.491173	0.45259	-0.518048	0.41799	-0.478913	-0.392187	-0.535118	-0.468227	-0.457436	-0.511662	-0.423575	0.401632	0.431216	0.447155	-0.405813	-0.442405	-0.47153	0.447893	0.484201	-0.460723	0.400791
0.385058	0.403143	0.44459	-0.375801	-0.392301	0.396552	0.377207	0.395259	0.410399	0.344595	0.384254	-0.476447	0.477526	-0.383192	0.466872	-0.326835	-0.455625	-0.427296	-0.375294	-0.325992	-0.481092	-0.366227	0.375113	0.35659	0.401034	-0.377896	-0.441872	-0.349986	0.468665	0.351498	-0.365938	0.477382
0.407236	0.385429	0.463561	-0.393404	-0.470632	0.414225	0.42165	0.498005	0.395862	0.466817	0.469939	-0.495551	0.363125	-0.536863	0.519782	-0.337932	-0.51235	-0.534716	-0.496895	-0.403591	-0.410197	-0.514087	0.427986	0.396162	0.505828	-0.388327	-0.482548	-0.425336	0.469249	0.496558	-0.414098	0.434217
0.462609	0.492418	0.5086	-0.30364	-0.437749	0.484187	0.518831	0.537143	0.416606	0.42765	0.474004	-0.425377	0.476974	-0.295537	0.422736	-0.287083	-0.438892	-0.310928	-0.451713	-0.46057	-0.414645	-0.494169	0.434979	0.374585	0.510156	-0.431181	-0.381963	-0.41038	0.44638	0.443301	-0.477286	0.53005
0.44853	0.388133	0.489573	-0.509255	-0.440025	0.387772	0.335014	0.483878	0.479445	0.47668	0.415385	-0.441097	0.437023	-0.419483	0.435399	-0.460176	-0.381012	-0.53184	-0.425253	-0.393357	-0.441129	-0.51278	0.394981	0.441979	0.459468	-0.489674	-0.455136	-0.403384	0.400887	0.435208	-0.474991	0.410407
0.487766	0.443875	0.4055	-0.401367	-0.450275	0.403276	0.352777	0.489173	0.371583	0.454651	0.434299	-0.48116	0.47061	-0.224123	0.43006	-0.416684	-0.457193	-0.398058	-0.423751	-0.39555	-0.458961	-0.479696	0.450963	0.406895	0.394726	-0.427095	-0.47831	-0.37476	0.422475	0.382633	-0.453721	0.361753
0.472878	0.428983	0.435299	-0.457904	-0.409339	0.380475	0.374618	0.438681	0.485683	0.378499	0.406559	-0.413308	0.372202	-0.332229	0.431429	-0.462606	-0.418229	-0.404788	-0.466133	-0.465037	-0.369881	-0.297849	0.306252	0.464174	0.400965	-0.411867	-0.413283	-0.455061	0.442597	0.431845	-0.35145	0.451861
0.40792	0.431095	0.471042	-0.454433	-0.414656	0.508947	0.430118	0.463406	0.402433	0.506634	0.389624	-0.424388	0.525986	-0.454889	0.416795	-0.571756	-0.436255	-0.500182	-0.406633	-0.418056	-0.524261	-0.318454	0.472123	0.526194	0.444132	-0.480593	-0.495941	-0.431796	0.479652	0.483841	-0.442637	0.450658
0.331502	0.47394	0.394433	-0.324389	-0.304015	0.319459	0.269589	0.296153	0.278724	0.502928	0.260257	-0.478617	0.196541	-0.560858	0.273149	-0.290916	-0.206111	-0.586636	-0.391267	-0.337978	-0.152063	0.0271013	0.21874	0.607988	0.0965549	-0.457348	-0.452588	-0.493596	0.257536	0.518471	-0.433666	0.20677
0.506487	0.423163	0.450174	-0.516479	-0.404439	0.398909	0.422201	0.463276	0.481496	0.443302	0.471136	-0.495637	0.429457	-0.434425	0.411402	-0.430081	-0.383876	-0.437456	-0.483434	-0.449377	-0.477566	-0.317918	0.484185	0.386439	0.508072	-0.480862	-0.401992	-0.447087	0.396848	0.492022	-0.430936	0.490858
0.429382	0.465387	0.417537	-0.413195	-0.444883	0.460294	0.435808	0.477795	0.401368	0.440133	0.420107	-0.427308	0.430894	-0.464774	0.463005	-0.457072	-0.473451	-0.445441	-0.460511	-0.457245	-0.402151	-0.411921	0.365377	0.477594	0.439004	-0.43563	-0.422418	-0.443055	0.482673	0.456185	-0.414919	0.409585
0.473132	0.403174	0.479179	-0.478931	-0.453418	0.332488	0.463597	0.469972	0.477392	0.530257	0.414342	-0.466449	0.487009	-0.327948	0.443143	-0.556528	-0.388721	-0.473135	-0.423452	-0.491943	-0.413455	-0.427803	0.433453	0.289849	0.419026	-0.448675	-0.349443	-0.470207	0.364409	0.52801	-0.489213	0.383292
0.44155	0.421561	0.489606	-0.465631	-0.499233	0.451665	0.408262	0.494501	0.489349	0.471346	0.411652	-0.493907	0.532475	-0.55813	0.510805	-0.442085	-0.511124	-0.505853	-0.439816	-0.514549	-0.48125	-0.437644	0.464961	0.445048	0.474068	-0.452102	-0.370246	-0.420891	0.484572	0.421176	-0.444501	0.502586
0.415589	0.471415	0.434004	-0.436814	-0.501555	0.376573	0.391773	0.499271	0.455564	0.40476	0.368577	-0.452475	0.454138	-0.441776	0.441076	-0.465364	-0.38277	-0.469293	-0.384604	-0.431554	-0.44629	-0.391801	0.43773	0.401345	0.500662	-0.451381	-0.384084	-0.507906	0.45081	0.438922	-0.422207	0.418521
0.452328	0.481504	0.405671	-0.452917	-0.4677	0.462041	0.411881	0.423379	0.381533	0.493146	0.390978	-0.401705	0.404774	-0.453329	0.491355	-0.520463	-0.396864	-0.39941	-0.475391	-0.461036	-0.424758	-0.455554	0.433349	0.470232	0.496246	-0.438175	-0.375157	-0.486864	0.439456	0.410908	-0.485962	0.489244
0.394079	0.500365	0.418725	-0.41385	-0.451112	0.472173	0.405244	0.39992	0.455307	0.514757	0.423382	-0.535891	0.498658	-0.480256	0.441524	-0.46893	-0.466211	-0.454793	-0.449387	-0.446641	-0.328849	-0.477908	0.272708	0.50355	0.40355	-0.48224	-0.446333	-0.51862	0.426364	0.471533	-0.365359	0.422006
0.519958	0.508894	0.424366	-0.47293	-0.440938	0.441229	0.430678	0.418799	0.520682	0.507104	0.469479	-0.463987	0.440594	-0.552416	0.522602	-0.421894	-0.452456	-0.494354	-0.511476	-0.518054	-0.431459	-0.466121	0.416555	0.411313	0.527822	-0.466744	-0.430985	-0.473948	0.436087	0.473082	-0.434215	0.376116
0.321532	0.302599	0.282854	-0.3855	-0.360132	0.354508	0.300019	0.389867	0.238436	0.326859	0.334716	-0.409137	0.44599	-0.161241	0.377027	-0.175765	-0.36643	-0.162919	-0.339239	-0.307302	-0.319419	-0.32995	0.301079	0.41662	0.295275	-0.309227	-0.305245	-0.401714	0.318669	0.415809	-0.440576	0.434463
0.47927	0.378512	0.428222	-0.333057	-0.46257	0.357513	0.485111	0.45149	0.442146	0.420188	0.471367	-0.384291	0.379203	-0.521729	0.478473	-0.483361	-0.523435	-0.381469	-0.419571	-0.489976	-0.446797	-0.436899	0.526538	0.440539	0.480077	-0.441123	-0.430528	-0.446492	0.438621	0.440023	-0.428996	0.38663
0.383967	0.379865	0.385524	-0.365928	-0.386166	0.442595	0.476912	0.41935	0.391339	0.485632	0.438094	-0.473964	0.32381	-0.460483	0.391856	-0.49206	-0.386944	-0.486352	-0.494534	-0.361825	-0.46316	-0.432651	0.445156	0.348698	0.48173	-0.374846	-0.483329	-0.398545	0.447534	0.441653	-0.435721	0.366601
0.394042	0.458773	0.485406	-0.500876	-0.49454	0.49249	0.515747	0.42699	0.36454	0.431308	0.449093	-0.478874	0.496721	-0.493243	0.400911	-0.373748	-0.369072	-0.459884	-0.410741	-0.463116	-0.488321	-0.366572	0.484811	0.511611	0.507936	-0.444958	-0.406966	-0.495371	0.488098	0.414287	-0.450309	0.399642
0.482781	0.510405	0.424668	-0.47422	-0.484516	0.482879	0.467807	0.413707	0.447025	0.44719	0.436299	-0.446701	0.463379	-0.516352	0.514758	-0.312643	-0.438757	-0.517185	-0.431402	-0.45361	-0.452071	-0.376834	0.487743	0.38876	0.494967	-0.41638	-0.443821	-0.439678	0.439206	0.413623	-0.451116	0.418863
0.428385	0.411835	0.444111	-0.376326	-0.455386	0.401241	0.435427	0.422464	0.344466	0.458371	0.428988	-0.359151	0.420559	-0.302847	0.428926	-0.42299	-0.452619	-0.383769	-0.345635	-0.398427	-0.467995	-0.466993	0.441882	0.3953	0.375782	-0.389823	-0.440882	-0.328346	0.444466	0.425843	-0.349295	0.369678
0.479537	0.457726	0.506225	-0.473192	-0.422013	0.415235	0.497874	0.461553	0.442367	0.418883	0.454238	-0.459745	0.480083	-0.428479	0.429727	-0.463921	-0.496227	-0.418521	-0.426719	-0.386747	-0.462931	-0.493281	0.449187	0.412223	0.440388	-0.501016	-0.457473	-0.42959	0.459115	0.464171	-0.461453	0.431908
0.410247	0.447147	0.424903	-0.445252	-0.396034	0.433044	0.415785	0.396199	0.444484	0.407526	0.453238	-0.422501	0.431898	-0.455033	0.457042	-0.489854	-0.484451	-0.367644	-0.403014	-0.313228	-0.369574	-0.452425	0.388909	0.399008	0.402114	-0.43551	-0.400888	-0.447489	0.435611	0.478249	-0.372902	0.422787
0.393395	0.351713	0.411837	-0.419029	-0.366073	0.371453	0.406625	0.422337	0.417579	0.432563	0.450211	-0.420218	0.35801	-0.432024	0.373349	-0.388612	-0.41195	-0.460578	-0.464965	-0.367265	-0.44162	-0.352004	0.473993	0.337567	0.397717	-0.459943	-0.414933	-0.432467	0.405942	0.457927	-0.449632	0.508614
0.485376	0.418404	0.442255	-0.382989	-0.403327	0.479938	0.501586	0.423587	0.381238	0.390294	0.443786	-0.462767	0.421984	-0.466472	0.469597	-0.538991	-0.479098	-0.43439	-0.484065	-0.36202	-0.50803	-0.463836	0.430055	0.333658	0.378029	-0.505757	-0.507874	-0.482183	0.437896	0.379106	-0.400971	0.454279
0.465373	0.413881	0.435626	-0.418138	-0.4346	0.482407	0.472775	0.431655	0.488265	0.426551	0.517926	-0.462863	0.45571	-0.451955	0.424811	-0.342557	-0.4698	-0.423832	-0.389335	-0.366747	-0.48608	-0.423743	0.431047	0.391425	0.436223	-0.393887	-0.44982	-0.445337	0.445615	0.481002	-0.390699	0.411873
0.500841	0.336153	0.435394	-0.430707	-0.452867	0.456284	0.430136	0.427371	0.440401	0.514832	0.462244	-0.455869	0.36316	-0.503515	0.430512	-0.493106	-0.454435	-0.430033	-0.444991	-0.485884	-0.418022	-0.403862	0.403966	0.37712	0.524765	-0.402075	-0.380161	-0.431595	0.481831	0.432615	-0.478128	0.354937
0.448827	0.372168	0.412925	-0.464646	-0.422073	0.486387	0.473153	0.484144	0.498762	0.485708	0.474263	-0.43806	0.44709	-0.527934	0.491297	-0.434437	-0.491423	-0.413557	-0.479251	-0.436056	-0.445816	-0.388166	0.490385	0.504856	0.455774	-0.388825	-0.473016	-0.425682	0.473758	0.501471	-0.496414	0.433092
0.489118	0.428051	0.460135	-0.479108	-0.411839	0.398897	0.479218	0.504328	0.467128	0.419587	0.397207	-0.408733	0.398827	-0.428817	0.420423	-0.466609	-0.513589	-0.40451	-0.380021	-0.372273	-0.474282	-0.380551	0.476612	0.471227	0.450118	-0.391885	-0.40691	-0.37305	0.376091	0.434335	-0.507546	0.397702
0.388345	0.43063	0.491489	-0.430854	-0.422286	0.415123	0.403549	0.400927	0.442009	0.429628	0.437561	-0.469625	0.40373	-0.476852	0.481461	-0.555457	-0.401227	-0.48656	-0.4561	-0.423852	-0.379016	-0.404339	0.43528	0.319529	0.393541	-0.477488	-0.406398	-0.442963	0.438061	0.51622	-0.452936	0.516043
0.479622	0.396496	0.411018	-0.384313	-0.390382	0.477074	0.320389	0.517563	0.445024	0.463449	0.446657	-0.465561	0.397372	-0.412346	0.510823	-0.370338	-0.406797	-0.463227	-0.438475	-0.384301	-0.461714	-0.456494	0.466374	0.483602	0.431277	-0.484254	-0.463477	-0.45289	0.381239	0.380976	-0.354429	0.458597
0.429808	0.518386	0.360647	-0.391093	-0.417448	0.518354	0.304312	0.49554	0.48342	0.52957	0.473041	-0.444734	0.224341	-0.248976	0.496714	-0.312691	-0.36496	-0.537304	-0.460188	-0.399059	-0.395661	-0.431515	0.464695	0.400932	0.469959	-0.430737	-0.349686	-0.462018	0.511651	0.257058	-0.338937	0.489266
0.5078	0.507252	0.44792	-0.392291	-0.441369	0.458163	0.476665	0.421043	0.477629	0.512026	0.39022	-0.508588	0.491938	-0.437241	0.484776	-0.476717	-0.408988	-0.437472	-0.488698	-0.463117	-0.427162	-0.457582	0.395577	0.415931	0.456653	-0.497095	-0.412644	-0.461132	0.413624	0.478948	-0.478556	0.487684
0.511134	0.399235	0.478428	-0.367993	-0.452383	0.466131	0.524429	0.507031	0.516918	0.427075	0.468903	-0.374564	0.428911	-0.501773	0.426917	-0.26452	-0.335346	-0.449553	-0.42898	-0.440889	-0.414367	-0.551236	0.45352	0.399416	0.387084	-0.484273	-0.496829	-0.490657	0.495117	0.361757	-0.425386	0.358302
0.433316	0.447984	0.400686	-0.419985	-0.441291	0.461856	0.470521	0.464909	0.403165	0.453365	0.498277	-0.493674	0.437036	-0.452922	0.450653	-0.373289	-0.333181	-0.510577	-0.425396	-0.498237	-0.409241	-0.398699	0.457158	0.336073	0.438922	-0.48513	-0.509097	-0.482878	0.423616	0.396006	-0.489032	0.405981
0.39502	0.473284	0.437481	-0.512286	-0.451336	0.488115	0.334514	0.463575	0.413288	0.340042	0.40087	-0.537643	0.492745	-0.45253	0.39975	-0.461257	-0.364595	-0.432275	-0.445289	-0.475225	-0.438583	-0.392133	0.439785	0.480221	0.369239	-0.444872	-0.461912	-0.445781	0.483256	0.440579	-0.417822	0.601047
0.47477	0.372298	0.376126	-0.443517	-0.461406	0.363479	0.363587	0.366063	0.440105	0.452992	0.385949	-0.452366	0.399651	-0.445919	0.40825	-0.352692	-0.409165	-0.286812	-0.40344	-0.364585	-0.479701	-0.459574	0.39154	0.297508	0.426171	-0.453795	-0.407891	-0.423411	0.419526	0.414511	-0.449818	0.35561
0.494086	0.431843	0.390339	-0.412213	-0.480601	0.435283	0.471717	0.497143	0.418299	0.488687	0.417474	-0.494604	0.424388	-0.470907	0.398323	-0.499965	-0.382098	-0.457849	-0.381846	-0.426488	-0.471512	-0.430053	0.475355	0.496278	0.458022	-0.491189	-0.385235	-0.445352	0.470258	0.392953	-0.416785	0.458965
0.425882	0.45561	0.404034	-0.426795	-0.47956	0.456624	0.466997	0.479587	0.438792	0.35024	0.46183	-0.406395	0.496572	-0.480785	0.471402	-0.542729	-0.42088	-0.406042	-0.458718	-0.424378	-0.475709	-0.446245	0.415095	0.367566	0.417751	-0.418687	-0.442054	-0.46639	0.412517	0.419997	-0.413144	0.372216
0.421671	0.514688	0.392988	-0.409849	-0.515728	0.388488	0.50931	0.441823	0.45957	0.468945	0.497296	-0.400879	0.391448	-0.401712	0.42035	-0.449392	-0.507028	-0.482003	-0.501733	-0.466327	-0.459885	-0.398854	0.450803	0.423259	0.513853	-0.407906	-0.423459	-0.483044	0.456657	0.413659	-0.406546	0.427775
0.44867	0.446235	0.490876	-0.446953	-0.499171	0.506962	0.395759	0.43569	0.425277	0.45841	0.436738	-0.494833	0.390089	-0.454745	0.40113	-0.404173	-0.462622	-0.399242	-0.410213	-0.426034	-0.409602	-0.437784	0.374003	0.406733	0.453559	-0.466988	-0.493081	-0.391129	0.432757	0.516081	-0.420609	0.429315
0.408978	0.39518	0.437777	-0.394591	-0.424794	0.412281	0.468827	0.525378	0.420418	0.435315	0.517639	-0.402081	0.436107	-0.432291	0.434674	-0.44133	-0.426259	-0.466812	-0.491816	-0.399145	-0.425765	-0.386835	0.486108	0.390943	0.440599	-0.4418	-0.490376	-0.396367	0.436852	0.452322	-0.429654	0.515043
0.463411	0.425876	0.331792	-0.419199	-0.386607	0.479905	0.385763	0.424886	0.397676	0.407585	0.35533	-0.439025	0.387387	-0.363349	0.308917	-0.494956	-0.241542	-0.386638	-0.419996	-0.447702	-0.307305	-0.353326	0.34382	0.523447	0.421543	-0.341365	-0.395625	-0.428878	0.416624	0.379702	-0.376557	0.384748
0.489538	0.390993	0.399601	-0.475455	-0.455519	0.455667	0.412178	0.415619	0.441517	0.513255	0.446293	-0.442504	0.449832	-0.454374	0.41767	-0.572169	-0.468167	-0.492124	-0.445705	-0.373581	-0.414207	-0.398132	0.347246	0.514516	0.436093	-0.493116	-0.421886	-0.408228	0.46186	0.397598	-0.412132	0.52565
0.439777	0.444117	0.423028	-0.495037	-0.426086	0.435346	0.467392	0.480937	0.428678	0.421183	0.493945	-0.486518	0.478145	-0.443175	0.43252	-0.441908	-0.53958	-0.415318	-0.47416	-0.516957	-0.454065	-0.489885	0.44338	0.397687	0.505386	-0.487317	-0.440196	-0.469269	0.398536	0.48309	-0.390358	0.460421
0.45063	0.489894	0.404484	-0.429588	-0.394546	0.396088	0.396877	0.439978	0.397891	0.452989	0.43228	-0.443859	0.412111	-0.458868	0.468893	-0.531781	-0.39296	-0.452516	-0.417836	-0.436609	-0.382085	-0.417188	0.3546	0.509078	0.391811	-0.405475	-0.50113	-0.464705	0.413448	0.414904	-0.365059	0.434092
0.366628	0.337558	0.438614	-0.409734	-0.435619	0.439011	0.357678	0.38566	0.419718	0.475342	0.363008	-0.42063	0.389561	-0.295944	0.366671	-0.362437	-0.394673	-0.284956	-0.407274	-0.38398	-0.439916	-0.373952	0.273855	0.461609	0.373775	-0.356111	-0.448145	-0.419759	0.447193	0.465814	-0.366259	0.386325
0.419663	0.377055	0.439388	-0.500018	-0.372672	0.476088	0.450078	0.501227	0.493652	0.405117	0.421325	-0.453258	0.427913	-0.35962	0.462678	-0.33144	-0.350447	-0.489875	-0.420311	-0.436401	-0.444308	-0.458253	0.437117	0.420749	0.45324	-0.472668	-0.372209	-0.408965	0.423008	0.448284	-0.417008	0.35222
0.428482	0.432753	0.475179	-0.41635	-0.392005	0.364604	0.488919	0.467897	0.483726	0.403103	0.403995	-0.372817	0.469987	-0.398227	0.389442	-0.360742	-0.495915	-0.395824	-0.449603	-0.372692	-0.460079	-0.401764	0.41346	0.504277	0.480259	-0.42239	-0.36258	-0.389742	0.41906	0.327193	-0.42947	0.31181
0.511241	0.361784	0.513809	-0.332766	-0.40063	0.445936	0.483977	0.473358	0.393649	0.430407	0.433157	-0.4218	0.429872	-0.518485	0.497597	-0.291434	-0.483481	-0.454379	-0.448862	-0.429477	-0.499925	-0.515452	0.401415	0.369651	0.481549	-0.480773	-0.442007	-0.464182	0.396917	0.338141	-0.434542	0.366114
0.43354	0.40458	0.453151	-0.27158	-0.374366	0.478003	0.488747	0.462869	0.396879	0.33637	0.458551	-0.525783	0.312324	-0.2335	0.445815	-0.244433	-0.484346	-0.34411	-0.462807	-0.475704	-0.47558	-0.464922	0.451968	0.316786	0.433539	-0.404318	-0.42417	-0.359021	0.422655	0.463979	-0.386476	0.492633
0.439714	0.45215	0.467663	-0.382685	-0.42772	0.449453	0.396099	0.484591	0.433824	0.376324	0.362944	-0.486122	0.455673	-0.474135	0.409042	-0.370111	-0.385643	-0.343713	-0.419395	-0.41447	-0.48301	-0.531702	0.42636	0.314066	0.492155	-0.475314	-0.371193	-0.410054	0.479122	0.377784	-0.429206	0.343036
0.371516	0.460656	0.408426	-0.397628	-0.410506	0.425373	0.435206	0.423394	0.454215	0.43897	0.467994	-0.444653	0.462389	-0.481677	0.430537	-0.430015	-0.368738	-0.466854	-0.435575	-0.409127	-0.389131	-0.350776	0.335611	0.497142	0.443079	-0.433678	-0.35084	-0.521645	0.405015	0.466355	-0.411607	0.485712
0.424459	0.416501	0.500337	-0.425843	-0.431275	0.404495	0.493585	0.451937	0.43518	0.406561	0.4305	-0.445627	0.481644	-0.434971	0.444724	-0.527317	-0.431537	-0.420182	-0.451446	-0.42767	-0.529542	-0.506277	0.376625	0.43996	0.515167	-0.503971	-0.495533	-0.50321	0.456322	0.450781	-0.425034	0.428614
0.405763	0.350735	0.423097	-0.47798	-0.412833	0.487107	0.516916	0.509368	0.421133	0.451411	0.483991	-0.441673	0.422222	-0.462549	0.501321	-0.280775	-0.436681	-0.428132	-0.40706	-0.485389	-0.384533	-0.44704	0.517655	0.312666	0.441364	-0.376384	-0.362171	-0.436619	0.454199	0.343311	-0.469516	0.498911
0.372814	0.328451	0.37546	-0.3983	-0.467285	0.417143	0.448367	0.425705	0.443295	0.478802	0.427776	-0.379646	0.429	-0.43427	0.408755	-0.484899	-0.414637	-0.499075	-0.367972	-0.486313	-0.404276	-0.323668	0.387197	0.477456	0.466691	-0.344898	-0.315664	-0.424201	0.464927	0.416047	-0.368986	0.449567
0.510743	0.511541	0.484038	-0.532493	-0.45405	0.440133	0.474387	0.427328	0.428294	0.407942	0.400643	-0.458581	0.413295	-0.36192	0.416574	-0.497721	-0.473878	-0.392841	-0.483391	-0.482429	-0.471371	-0.478707	0.486023	0.341709	0.465694	-0.495447	-0.524988	-0.399862	0.494054	0.369751	-0.529933	0.408209
0.51818	0.448955	0.399761	-0.465404	-0.455094	0.362407	0.43281	0.446873	0.456945	0.450512	0.512775	-0.382478	0.520493	-0.586466	0.503976	-0.48099	-0.50847	-0.429415	-0.43625	-0.442647	-0.439425	-0.461669	0.448508	0.265763	0.465758	-0.477894	-0.514287	-0.417831	0.46987	0.426262	-0.399711	0.43206
0.309912	0.283485	0.250381	-0.3625	-0.262394	0.314406	0.353673	0.348134	0.321123	0.427874	0.357404	-0.435763	0.406415	-0.307741	0.208109	-0.283428	-0.120534	-0.404877	-0.378011	-0.359513	-0.196862	-0.0560742	0.130691	0.54697	0.182511	-0.377117	-0.331111	-0.467414	0.290672	0.328451	-0.488308	0.404116
0.468202	0.414589	0.440274	-0.382113	-0.452039	0.440094	0.358	0.391641	0.495072	0.469543	0.479506	-0.426649	0.432392	-0.455021	0.467317	-0.516625	-0.448799	-0.420146	-0.345109	-0.389409	-0.49651	-0.301745	0.35851	0.448182	0.392032	-0.389553	-0.391929	-0.427951	0.377876	0.470415	-0.387937	0.409728
0.496425	0.419875	0.416334	-0.528296	-0.478911	0.379219	0.445865	0.457516	0.517596	0.468271	0.419467	-0.364489	0.467068	-0.453183	0.451008	-0.526195	-0.480136	-0.446609	-0.516178	-0.497161	-0.420351	-0.370809	0.355441	0.436725	0.40293	-0.429332	-0.435683	-0.413266	0.443611	0.487008	-0.408572	0.504587
0.495625	0.45059	0.421214	-0.334921	-0.477688	0.400592	0.438552	0.410533	0.466079	0.461893	0.492804	-0.458935	0.382259	-0.455811	0.417449	-0.424591	-0.486027	-0.4589	-0.464979	-0.46176	-0.454335	-0.356708	0.353903	0.480278	0.409693	-0.444495	-0.455042	-0.449793	0.491051	0.455242	-0.38386	0.352735
0.400445	0.418817	0.417014	-0.421778	-0.417093	0.376931	0.349961	0.344133	0.451082	0.446684	0.30339	-0.407641	0.424971	-0.357903	0.369363	-0.415542	-0.415886	-0.400692	-0.412439	-0.428782	-0.470681	-0.375608	0.39243	0.511629	0.443615	-0.398909	-0.459582	-0.388201	0.432103	0.425146	-0.447118	0.240211
0.495802	0.438988	0.479266	-0.442452	-0.446644	0.438452	0.428665	0.490937	0.487985	0.425181	0.427274	-0.478114	0.472361	-0.500349	0.507741	-0.373549	-0.50994	-0.368133	-0.398059	-0.418725	-0.456678	-0.394141	0.479302	0.396754	0.381255	-0.374647	-0.489929	-0.442723	0.466279	0.418483	-0.474654	0.319902
0.525365	0.453947	0.470958	-0.44953	-0.397225	0.493818	0.537679	0.499759	0.415324	0.538047	0.474305	-0.496433	0.428677	-0.428269	0.474159	-0.358442	-0.419592	-0.393934	-0.475615	-0.428548	-0.463028	-0.441933	0.442693	0.379456	0.50786	-0.426387	-0.429092	-0.494654	0.50201	0.469063	-0.413314	0.48577
0.502051	0.482942	0.48694	-0.434692	-0.48026	0.436761	0.408056	0.476425	0.406658	0.415805	0.477053	-0.467349	0.481299	-0.407226	0.450936	-0.483324	-0.463033	-0.401207	-0.452351	-0.473195	-0.513672	-0.420128	0.477241	0.455003	0.470239	-0.467958	-0.484544	-0.437019	0.40936	0.49077	-0.420767	0.418238
0.497142	0.234212	0.338013	-0.441155	-0.345606	0.392741	0.278227	0.31889	0.265965	0.459548	0.48355	-0.246968	0.576726	-0.328811	0.44587	-0.597199	-0.435402	-0.543623	-0.510663	-0.536167	-0.531314	-0.258245	0.387893	0.543015	0.536983	-0.415763	-0.541576	-0.519833	0.476427	0.45931	-0.522158	0.398913
0.42073	0.313855	0.513478	-0.511118	-0.44059	0.427835	0.472636	0.506241	0.42316	0.444092	0.423471	-0.50414	0.524844	-0.554816	0.490747	-0.435188	-0.382826	-0.540279	-0.419595	-0.377549	-0.483321	-0.401138	0.467903	0.379633	0.415057	-0.453719	-0.377928	-0.511731	0.485614	0.465652	-0.441603	0.402887
0.412556	0.450187	0.515311	-0.493489	-0.457111	0.427014	0.342812	0.481233	0.490865	0.49968	0.504703	-0.369434	0.511339	-0.290978	0.468889	-0.373397	-0.358812	-0.445899	-0.408714	-0.433902	-0.486169	-0.347878	0.506033	0.471211	0.492787	-0.429179	-0.421942	-0.482924	0.4499	0.374542	-0.408742	0.322881
0.444692	0.440333	0.411477	-0.43807	-0.420116	0.411866	0.419012	0.410474	0.375535	0.394532	0.400396	-0.397471	0.432216	-0.419425	0.458531	-0.298533	-0.357791	-0.458238	-0.430138	-0.445485	-0.425462	-0.433176	0.38516	0.477946	0.48126	-0.442999	-0.47903	-0.464313	0.435232	0.441287	-0.496716	0.468824
0.449868	0.449836	0.430737	-0.390153	-0.365949	0.428554	0.501472	0.48094	0.407663	0.491439	0.426024	-0.332266	0.36247	-0.50754	0.390701	-0.458876	-0.490275	-0.393686	-0.48444	-0.383917	-0.394052	-0.433725	0.479221	0.399867	0.399497	-0.456004	-0.392757	-0.447761	0.465878	0.415485	-0.351248	0.397935
0.455133	0.47738	0.403613	-0.461087	-0.465832	0.434465	0.44922	0.502203	0.402338	0.478584	0.483521	-0.503959	0.455102	-0.441849	0.418827	-0.434794	-0.464403	-0.482565	-0.495724	-0.412317	-0.492282	-0.44329	0.380964	0.538882	0.52081	-0.495819	-0.438928	-0.501982	0.445118	0.364108	-0.522773	0.505594
0.423587	0.490728	0.491901	-0.396014	-0.386265	0.495017	0.515642	0.393158	0.448231	0.486599	0.38716	-0.365437	0.474545	-0.322342	0.382404	-0.472805	-0.394186	-0.370761	-0.417828	-0.460477	-0.383956	-0.386886	0.458229	0.533843	0.498523	-0.447692	-0.389968	-0.509518	0.455056	0.330675	-0.400833	0.413175
0.503125	0.46663	0.481802	-0.439998	-0.51493	0.493876	0.434875	0.472951	0.486325	0.454879	0.45158	-0.488472	0.426062	-0.400897	0.407417	-0.434077	-0.408403	-0.429862	-0.457984	-0.433293	-0.491968	-0.521858	0.415156	0.421469	0.452804	-0.415033	-0.389078	-0.466727	0.416069	0.419794	-0.480674	0.47957
0.352986	0.445854	0.381153	-0.3248	-0.413507	0.318881	0.452572	0.36406	0.278297	0.358564	0.27516	-0.363556	0.362013	-0.319376	0.391165	-0.1559	-0.381127	-0.369117	-0.447121	-0.349241	-0.282947	-0.335229	0.303984	0.256898	0.318774	-0.457343	-0.31423	-0.306338	0.364858	0.392004	-0.394224	0.392827
0.42135	0.462238	0.425827	-0.415931	-0.465759	0.448313	0.535509	0.4321	0.491633	0.438914	0.40107	-0.424241	0.437135	-0.54382	0.432802	-0.517455	-0.450338	-0.499809	-0.435161	-0.480896	-0.485427	-0.483528	0.41918	0.43563	0.49467	-0.505101	-0.472349	-0.461145	0.438055	0.481968	-0.425355	0.39574
0.496255	0.448884	0.498419	-0.472005	-0.361812	0.369815	0.322303	0.421937	0.39278	0.426014	0.431521	-0.398334	0.364297	-0.389337	0.39749	-0.489875	-0.419962	-0.435803	-0.489633	-0.447078	-0.434113	-0.475619	0.464496	0.320496	0.461452	-0.483251	-0.450899	-0.407695	0.429462	0.406995	-0.457158	0.413479
0.477992	0.467071	0.39182	-0.513042	-0.404513	0.42745	0.393654	0.421419	0.379172	0.400344	0.416734	-0.409467	0.451048	-0.483795	0.388911	-0.495648	-0.333569	-0.377418	-0.413811	-0.48448	-0.409957	-0.393781	0.428166	0.57888	0.405721	-0.398247	-0.502416	-0.534092	0.481663	0.39755	-0.383727	0.488972
0.481006	0.450971	0.396532	-0.404565	-0.450163	0.481788	0.48781	0.401681	0.438798	0.470049	0.489273	-0.426512	0.392443	-0.504013	0.497858	-0.27249	-0.420619	-0.396867	-0.433578	-0.391373	-0.469786	-0.517791	0.471785	0.469202	0.390364	-0.400998	-0.426908	-0.430423	0.461058	0.436689	-0.441286	0.412951
0.431116	0.447815	0.419142	-0.490417	-0.429984	0.43503	0.432495	0.506859	0.446398	0.441073	0.426122	-0.474593	0.440514	-0.387636	0.50018	-0.496272	-0.454469	-0.418921	-0.40166	-0.445128	-0.40833	-0.38903	0.519042	0.427456	0.425066	-0.422928	-0.411571	-0.385167	0.449916	0.390854	-0.397283	0.351779
0.441975	0.376459	0.352863	-0.40993	-0.407529	0.443454	0.32368	0.488213	0.434596	0.459397	0.419196	-0.485431	0.403536	-0.501569	0.417937	-0.499638	-0.422879	-0.503739	-0.465117	-0.445681	-0.364087	-0.361426	0.382877	0.402998	0.344394	-0.444817	-0.418795	-0.444222	0.43589	0.478483	-0.365448	0.396063
0.488728	0.419565	0.420069	-0.536275	-0.395783	0.444804	0.525144	0.413478	0.494697	0.510436	0.410352	-0.500747	0.388374	-0.465813	0.500389	-0.387941	-0.358012	-0.511727	-0.499845	-0.416905	-0.462663	-0.334673	0.432981	0.465593	0.502065	-0.489611	-0.468698	-0.545616	0.469054	0.490147	-0.536147	0.472764
0.490003	0.358408	0.511995	-0.438059	-0.508757	0.480841	0.416875	0.497404	0.453979	0.496223	0.450113	-0.442831	0.441722	-0.415113	0.510165	-0.429566	-0.527121	-0.494636	-0.461614	-0.430146	-0.48139	-0.410469	0.495273	0.377705	0.477249	-0.402009	-0.484406	-0.404022	0.444812	0.449573	-0.446668	0.424465
0.526508	0.467012	0.484134	-0.530676	-0.537808	0.436764	0.418946	0.461377	0.416037	0.480157	0.493315	-0.44927	0.349269	-0.511985	0.420139	-0.480028	-0.389136	-0.524498	-0.491994	-0.424584	-0.42823	-0.440854	0.413717	0.460032	0.483212	-0.491386	-0.403406	-0.430912	0.507675	0.412548	-0.480399	0.480692
0.433361	0.363502	0.491612	-0.373163	-0.487971	0.342938	0.411972	0.459929	0.473619	0.45176	0.386116	-0.441887	0.455178	-0.355428	0.433208	-0.466608	-0.43057	-0.476569	-0.443105	-0.453635	-0.490277	-0.417876	0.403662	0.291648	0.492403	-0.481499	-0.47755	-0.454213	0.395567	0.336304	-0.427453	0.514929
0.475554	0.389362	0.474726	-0.503451	-0.431655	0.479678	0.485878	0.407589	0.47624	0.442152	0.501816	-0.418675	0.378238	-0.406213	0.496363	-0.487287	-0.531825	-0.487368	-0.439267	-0.398144	-0.436424	-0.450346	0.428351	0.488495	0.487625	-0.364894	-0.364046	-0.454006	0.507085	0.431035	-0.416221	0.467945
0.402314	0.392016	0.437722	-0.398642	-0.339622	0.560001	0.489504	0.453195	0.532797	0.42182	0.409315	-0.382026	0.431268	-0.312336	0.458356	-0.354225	-0.497661	-0.255361	-0.450634	-0.301411	-0.402643	-0.467104	0.487392	0.262668	0.364537	-0.496829	-0.463699	-0.33959	0.337912	0.54507	-0.385525	0.534245
0.463283	0.387028	0.411316	-0.513757	-0.473101	0.404671	0.419409	0.47616	0.517398	0.46923	0.403478	-0.351967	0.518324	-0.510572	0.441163	-0.326059	-0.402282	-0.480736	-0.433784	-0.36695	-0.364148	-0.400435	0.474529	0.310709	0.431856	-0.456687	-0.478784	-0.359652	0.483842	0.426975	-0.39559	0.452179
0.421269	0.471814	0.46914	-0.400266	-0.431015	0.40613	0.458809	0.463452	0.445507	0.523643	0.398782	-0.430637	0.468345	-0.429475	0.477302	-0.370765	-0.494393	-0.444941	-0.482872	-0.462015	-0.406718	-0.542163	0.512127	0.353341	0.441378	-0.489989	-0.418508	-0.419483	0.446516	0.353235	-0.521928	0.50522
0.514587	0.459646	0.515926	-0.470373	-0.513261	0.503394	0.435911	0.467296	0.498046	0.474656	0.439862	-0.446794	0.463264	-0.464501	0.440214	-0.389792	-0.370962	-0.464373	-0.478815	-0.350612	-0.456407	-0.466946	0.482148	0.470649	0.453539	-0.456754	-0.462617	-0.428179	0.439953	0.480983	-0.413385	0.502074
0.491443	0.445342	0.334419	-0.50448	-0.341342	0.510687	0.490936	0.352924	0.457799	0.383557	0.49975	-0.439806	0.430977	-0.368721	0.403259	-0.505517	-0.321483	-0.531445	-0.393558	-0.333008	-0.337267	-0.378077	0.318372	0.58992	0.300093	-0.397192	-0.52268	-0.552277	0.45749	0.356201	-0.430844	0.531859
0.441337	0.351486	0.525002	-0.523074	-0.423712	0.478565	0.478771	0.471178	0.453294	0.488824	0.502069	-0.364829	0.468392	-0.403954	0.498961	-0.425609	-0.449464	-0.446161	-0.461113	-0.382559	-0.498514	-0.293333	0.40693	0.394164	0.525609	-0.431968	-0.468191	-0.513985	0.486588	0.490113	-0.459241	0.422288
0.43714	0.483595	0.393198	-0.480048	-0.453957	0.477056	0.404393	0.405801	0.446961	0.391429	0.483885	-0.411303	0.446846	-0.451224	0.484758	-0.433708	-0.400738	-0.449831	-0.492373	-0.443153	-0.447962	-0.34433	0.453438	0.388048	0.421708	-0.469808	-0.487457	-0.494512	0.408153	0.464256	-0.436236	0.385964
0.424073	0.475823	0.493787	-0.407932	-0.504165	0.448969	0.478986	0.459367	0.51272	0.440306	0.402788	-0.524877	0.426966	-0.431088	0.507536	-0.42669	-0.533405	-0.490507	-0.462302	-0.452342	-0.483386	-0.460245	0.506892	0.357707	0.487177	-0.425626	-0.396082	-0.446638	0.437201	0.425836	-0.478369	0.462883
0.495608	0.528992	0.483186	-0.456749	-0.415373	0.408691	0.413146	0.411858	0.467777	0.401025	0.441865	-0.417463	0.41551	-0.450893	0.430625	-0.495787	-0.396361	-0.451156	-0.390264	-0.379355	-0.489515	-0.441993	0.43075	0.298395	0.460151	-0.424153	-0.411407	-0.376794	0.519771	0.458792	-0.478285	0.412802
0.402681	0.398694	0.334717	-0.332806	-0.281792	0.385792	0.324952	0.366279	0.33585	0.433583	0.426501	-0.365089	0.33223	-0.342518	0.400302	-0.255991	-0.394969	-0.455365	-0.391497	-0.323721	-0.361269	-0.330896	0.378851	0.413354	0.384396	-0.341442	-0.275489	-0.445354	0.325926	0.334811	-0.360523	0.366924
0.430318	0.388894	0.372862	-0.395378	-0.348668	0.388033	0.47707	0.45308	0.35547	0.499812	0.326033	-0.455498	0.454827	-0.45732	0.439332	-0.569221	-0.493996	-0.426583	-0.466072	-0.381205	-0.385432	-0.431872	0.4201	0.435632	0.441637	-0.368322	-0.474744	-0.357594	0.386126	0.423903	-0.430746	0.421232
0.422489	0.413285	0.372904	-0.41565	-0.421831	0.359138	0.351141	0.463018	0.435043	0.385613	0.470573	-0.406022	0.382111	-0.295322	0.416583	-0.430012	-0.42382	-0.468893	-0.453655	-0.472402	-0.39349	-0.434243	0.315913	0.454205	0.389588	-0.479468	-0.319738	-0.486362	0.402628	0.487985	-0.447526	0.446233
0.44533	0.433302	0.382408	-0.460605	-0.417332	0.481812	0.408741	0.415774	0.427584	0.405321	0.383263	-0.468175	0.403157	-0.460515	0.466274	-0.407032	-0.435643	-0.522617	-0.435275	-0.421134	-0.439042	-0.426436	0.405032	0.462787	0.47753	-0.442755	-0.454783	-0.46419	0.425031	0.373014	-0.411644	0.398725
0.522839	0.421939	0.423642	-0.391896	-0.464808	0.419879	0.465872	0.533516	0.471976	0.473413	0.435348	-0.425222	0.4051	-0.501074	0.502862	-0.425112	-0.454957	-0.48475	-0.494134	-0.477919	-0.47274	-0.498545	0.461402	0.452004	0.392883	-0.398978	-0.470237	-0.404362	0.524741	0.386609	-0.39793	0.345266
0.442983	0.428587	0.524711	-0.460769	-0.43303	0.508564	0.416695	0.514581	0.496747	0.539171	0.503846	-0.483282	0.467458	-0.362361	0.512112	-0.384901	-0.367655	-0.503447	-0.501462	-0.490856	-0.480611	-0.542568	0.497042	0.481548	0.431052	-0.525455	-0.43399	-0.427925	0.473147	0.41205	-0.45793	0.343813
0.421691	0.43301	0.417861	-0.479821	-0.473575	0.481966	0.394605	0.49561	0.469196	0.415641	0.496679	-0.509027	0.507619	-0.472189	0.497119	-0.450692	-0.458885	-0.433253	-0.444102	-0.402853	-0.413003	-0.359589	0.500002	0.387345	0.448097	-0.418226	-0.467444	-0.493504	0.413703	0.4829	-0.433326	0.419425
0.485918	0.382884	0.478696	-0.480714	-0.415826	0.445391	0.406577	0.38774	0.44636	0.417489	0.418768	-0.421762	0.471903	-0.434397	0.458912	-0.355928	-0.452547	-0.506698	-0.425404	-0.393379	-0.409252	-0.365346	0.474853	0.47192	0.459679	-0.406331	-0.400233	-0.469018	0.463659	0.410099	-0.423592	0.382825
0.455222	0.474945	0.481887	-0.519602	-0.381984	0.504219	0.411955	0.431152	0.401088	0.503138	0.358981	-0.510917	0.42446	-0.365536	0.471119	-0.547738	-0.408411	-0.511322	-0.390373	-0.470452	-0.436716	-0.387704	0.408853	0.345412	0.504051	-0.471337	-0.466611	-0.435287	0.466512	0.447247	-0.363394	0.491415
0.477242	0.385617	0.392683	-0.451379	-0.410669	0.443755	0.527745	0.427093	0.381598	0.494796	0.446714	-0.495807	0.421622	-0.53204	0.486516	-0.410217	-0.447812	-0.503839	-0.49049	-0.414587	-0.410705	-0.506744	0.365706	0.455681	0.390516	-0.379653	-0.419906	-0.348733	0.465331	0.522974	-0.374692	0.396323
0.430034	0.35947	0.450476	-0.419486	-0.486206	0.480906	0.401736	0.410002	0.465313	0.443294	0.352951	-0.378477	0.431386	-0.500048	0.398287	-0.368696	-0.325292	-0.40537	-0.411401	-0.460331	-0.396496	-0.47304	0.4619	0.367987	0.383284	-0.46752	-0.429637	-0.416355	0.416329	0.421937	-0.443336	0.395965
0.474219	0.455249	0.430022	-0.528102	-0.489332	0.485875	0.472279	0.463732	0.46452	0.446975	0.459724	-0.481483	0.513797	-0.513418	0.442459	-0.335061	-0.489123	-0.54598	-0.440268	-0.388649	-0.442218	-0.420901	0.505846	0.356796	0.414163	-0.481851	-0.447276	-0.49974	0.481754	0.518895	-0.456699	0.478781
0.418272	0.401674	0.47455	-0.485301	-0.413974	0.485078	0.480066	0.433052	0.49514	0.428646	0.436764	-0.452128	0.37737	-0.499742	0.503435	-0.478145	-0.448441	-0.48275	-0.481024	-0.403507	-0.45795	-0.361384	0.429803	0.480623	0.37802	-0.401548	-0.386511	-0.469353	0.49435	0.390741	-0.409993	0.403909
0.428843	0.411546	0.4667	-0.428117	-0.445834	0.413328	0.357431	0.372172	0.357508	0.399182	0.432571	-0.4415	0.43853	-0.419956	0.41511	-0.395516	-0.430773	-0.437811	-0.484315	-0.486286	-0.461951	-0.380135	0.356747	0.450277	0.49194	-0.424671	-0.463477	-0.454202	0.356996	0.372713	-0.308772	0.373328
0.45571	0.516672	0.501184	-0.426844	-0.483552	0.406956	0.477375	0.387737	0.465242	0.451329	0.461005	-0.480885	0.439328	-0.498408	0.42552	-0.427588	-0.366648	-0.468338	-0.434529	-0.458064	-0.504294	-0.405091	0.431253	0.454343	0.496116	-0.448464	-0.452042	-0.391155	0.475061	0.47062	-0.433851	0.383513
0.421685	0.385883	0.481615	-0.461151	-0.514556	0.446	0.533909	0.481779	0.482358	0.435355	0.468381	-0.495869	0.49147	-0.409463	0.399549	-0.448734	-0.406243	-0.436929	-0.496683	-0.514454	-0.466603	-0.284712	0.475915	0.448049	0.410129	-0.419377	-0.392874	-0.446415	0.488587	0.486341	-0.464996	0.453483
0.484327	0.450878	0.417698	-0.406445	-0.491233	0.479112	0.427106	0.501185	0.445897	0.424125	0.458762	-0.392521	0.493708	-0.48322	0.474232	-0.472762	-0.469096	-0.438371	-0.493586	-0.404006	-0.479488	-0.350984	0.383211	0.402933	0.464238	-0.488814	-0.498549	-0.444202	0.415647	0.365785	-0.532807	0.409794
0.502597	0.396008	0.445223	-0.488315	-0.439957	0.503377	0.417119	0.470659	0.457659	0.446583	0.403241	-0.452738	0.312315	-0.471987	0.493599	-0.460492	-0.475281	-0.472646	-0.456343	-0.340431	-0.507528	-0.491645	0.360264	0.420034	0.395692	-0.44591	-0.401914	-0.379517	0.455987	0.418922	-0.425767	0.454334
0.494363	0.494801	0.505719	-0.441126	-0.459079	0.370505	0.471293	0.538367	0.473172	0.408558	0.500274	-0.512753	0.365339	-0.367428	0.444338	-0.546156	-0.511467	-0.556887	-0.416127	-0.455888	-0.468963	-0.38296	0.374243	0.517136	0.427777	-0.460568	-0.399579	-0.421513	0.431451	0.461155	-0.53976	0.433109
0.44163	0.395887	0.511442	-0.396827	-0.509735	0.399408	0.428399	0.438893	0.49932	0.440419	0.553556	-0.514648	0.503837	-0.570873	0.449063	-0.561428	-0.447007	-0.294278	-0.438377	-0.501225	-0.472942	-0.548371	0.516525	0.347444	0.472301	-0.410664	-0.427895	-0.449709	0.499182	0.406362	-0.482366	0.28172
0.410937	0.402474	0.399973	-0.36786	-0.450246	0.438217	0.37072	0.366974	0.36081	0.453757	0.46505	-0.390904	0.405135	-0.334157	0.426263	-0.541701	-0.302906	-0.440701	-0.374523	-0.458144	-0.391762	-0.452199	0.381479	0.456618	0.381161	-0.377127	-0.43922	-0.407573	0.446671	0.477296	-0.387494	0.475033
0.491961	0.487918	0.516656	-0.459736	-0.487645	0.386238	0.35802	0.432334	0.442519	0.429751	0.474065	-0.409578	0.476078	-0.439515	0.45682	-0.411621	-0.444205	-0.368653	-0.487829	-0.416001	-0.475477	-0.426284	0.471221	0.288863	0.404516	-0.489602	-0.424318	-0.470171	0.491758	0.406142	-0.445596	0.440351
0.499658	0.399207	0.479685	-0.445155	-0.434818	0.376505	0.349618	0.418956	0.453169	0.501716	0.43385	-0.456533	0.451082	-0.459013	0.45022	-0.394461	-0.468137	-0.471956	-0.451122	-0.438364	-0.460702	-0.509469	0.406582	0.484856	0.393085	-0.473699	-0.440017	-0.404929	0.491301	0.426805	-0.417377	0.473142
0.436613	0.537075	0.433898	-0.425436	-0.407996	0.425285	0.370403	0.470156	0.432345	0.502718	0.420436	-0.401079	0.491477	-0.40808	0.392932	-0.481353	-0.399237	-0.419837	-0.407787	-0.456119	-0.372385	-0.365846	0.472637	0.522238	0.385795	-0.459326	-0.449721	-0.500298	0.46824	0.397488	-0.42573	0.424377
0.488699	0.512381	0.419589	-0.519775	-0.45568	0.422937	0.372875	0.446008	0.4699	0.448069	0.435981	-0.431932	0.420515	-0.41376	0.476245	-0.273245	-0.422827	-0.425506	-0.43099	-0.408429	-0.419707	-0.346537	0.499098	0.495337	0.513278	-0.44696	-0.44643	-0.431527	0.447281	0.465104	-0.399461	0.366858
0.407163	0.498267	0.385546	-0.399203	-0.368789	0.405483	0.487442	0.421248	0.407453	0.479198	0.479905	-0.452403	0.428938	-0.358048	0.41541	-0.304224	-0.382232	-0.490777	-0.402559	-0.394736	-0.429471	-0.411448	0.358931	0.442278	0.524498	-0.421988	-0.469135	-0.390538	0.500122	0.441875	-0.402526	0.401013
0.428185	0.40547	0.475873	-0.397422	-0.507997	0.51003	0.493575	0.440409	0.50348	0.431534	0.458312	-0.44309	0.448594	-0.524478	0.450978	-0.329029	-0.410943	-0.431897	-0.463358	-0.477162	-0.465333	-0.461513	0.500663	0.374859	0.488273	-0.464312	-0.453584	-0.515198	0.441672	0.404088	-0.411194	0.375952
0.427152	0.450692	0.46385	-0.451496	-0.440884	0.395245	0.421425	0.474893	0.440013	0.451221	0.378738	-0.350021	0.321232	-0.457628	0.434717	-0.285917	-0.479861	-0.476449	-0.432058	-0.43391	-0.419615	-0.41163	0.400726	0.422489	0.453511	-0.402448	-0.415785	-0.432978	0.429745	0.410749	-0.378518	0.355891
0.435058	0.423729	0.412473	-0.413379	-0.434899	0.397572	0.524169	0.453966	0.426217	0.430998	0.463023	-0.493537	0.38638	-0.52004	0.518177	-0.496599	-0.391435	-0.490743	-0.4072	-0.484518	-0.429647	-0.470967	0.445396	0.470884	0.444614	-0.426659	-0.438079	-0.438687	0.460413	0.522636	-0.472398	0.447853
0.440627	0.346992	0.459704	-0.386611	-0.426625	0.402615	0.432039	0.440176	0.506277	0.435556	0.437824	-0.412146	0.42705	-0.444688	0.441757	-0.391817	-0.461995	-0.459629	-0.499331	-0.464843	-0.485453	-0.354276	0.485988	0.464506	0.407364	-0.445152	-0.390268	-0.428025	0.434359	0.447113	-0.451348	0.468758
0.442713	0.428947	0.465115	-0.455224	-0.474619	0.410996	0.393066	0.412796	0.381771	0.462607	0.434502	-0.418318	0.433298	-0.384117	0.433871	-0.473381	-0.39765	-0.506005	-0.416695	-0.427105	-0.435163	-0.385777	0.403222	0.413299	0.480707	-0.419861	-0.433032	-0.422472	0.468875	0.438695	-0.425177	0.423849
0.400486	0.403691	0.472149	-0.457291	-0.422814	0.452456	0.440785	0.444874	0.337452	0.450796	0.474088	-0.39409	0.503223	-0.29672	0.409348	-0.461764	-0.433974	-0.39935	-0.462859	-0.300064	-0.332515	-0.449599	0.380863	0.266634	0.361255	-0.419239	-0.392632	-0.46512	0.400067	0.500924	-0.404153	0.393775
0.40679	0.493976	0.480948	-0.391607	-0.357475	0.441251	0.517628	0.405026	0.395727	0.396372	0.462142	-0.433981	0.432238	-0.354874	0.435025	-0.402028	-0.428915	-0.414207	-0.466391	-0.459102	-0.519114	-0.433514	0.426041	0.365375	0.438863	-0.381169	-0.426749	-0.441237	0.47464	0.469769	-0.47276	0.492904
0.375019	0.436434	0.44027	-0.42146	-0.420787	0.491618	0.401916	0.40597	0.413679	0.485605	0.394655	-0.498331	0.329099	-0.316948	0.424218	-0.372644	-0.385294	-0.337225	-0.454007	-0.353679	-0.44939	-0.45381	0.38686	0.455682	0.403943	-0.401943	-0.441491	-0.48257	0.48121	0.419632	-0.433511	0.344974
0.438104	0.527806	0.398837	-0.45429	-0.443921	0.396691	0.393473	0.413089	0.372841	0.446511	0.429996	-0.571764	0.368208	-0.509171	0.333979	-0.357083	-0.283789	-0.495924	-0.499671	-0.532133	-0.336093	-0.201838	0.3798	0.619062	0.297006	-0.455362	-0.443327	-0.61113	0.375623	0.544261	-0.56276	0.519655
0.418436	0.432789	0.416094	-0.489164	-0.490749	0.385364	0.491822	0.418101	0.4533	0.431507	0.442445	-0.38344	0.487237	-0.472745	0.4934	-0.371986	-0.503472	-0.503296	-0.427626	-0.371041	-0.45017	-0.434038	0.531971	0.369963	0.421538	-0.373336	-0.410304	-0.440949	0.399404	0.379419	-0.449713	0.385503
0.543746	0.347043	0.407015	-0.290666	-0.483397	0.387185	0.377288	0.433482	0.43625	0.424501	0.537564	-0.372126	0.59228	-0.376887	0.488509	-0.506022	-0.526909	-0.509566	-0.526962	-0.506612	-0.577953	-0.236724	0.490214	0.495476	0.45798	-0.397217	-0.477491	-0.548038	0.4372	0.406586	-0.43465	0.433873
0.35541	0.443091	0.432597	-0.474346	-0.471032	0.443302	0.490243	0.453615	0.446452	0.429262	0.441438	-0.454604	0.358816	-0.466333	0.435715	-0.401738	-0.437968	-0.462707	-0.401849	-0.382149	-0.390967	-0.430559	0.410857	0.388384	0.417935	-0.429603	-0.475196	-0.401837	0.441797	0.422686	-0.428808	0.382644
0.475023	0.426746	0.416549	-0.46275	-0.398357	0.483918	0.370909	0.453727	0.496377	0.486774	0.459672	-0.477189	0.316667	-0.496121	0.453831	-0.449479	-0.4175	-0.353452	-0.502141	-0.45788	-0.453051	-0.407042	0.432086	0.404994	0.471163	-0.478006	-0.478099	-0.456019	0.465344	0.436948	-0.430163	0.365177
0.470547	0.534711	0.415654	-0.451094	-0.385829	0.448717	0.368832	0.484169	0.37417	0.511059	0.42202	-0.483129	0.460131	-0.376912	0.493177	-0.368399	-0.334419	-0.446565	-0.393476	-0.463998	-0.474789	-0.42232	0.444431	0.532116	0.435401	-0.460656	-0.396459	-0.363812	0.416331	0.34361	-0.441183	0.48857
0.489357	0.447468	0.382333	-0.367829	-0.40919	0.487089	0.495491	0.491018	0.448229	0.354677	0.346022	-0.481328	0.405029	-0.453112	0.371569	-0.354348	-0.414717	-0.407312	-0.477715	-0.415228	-0.463016	-0.383795	0.502714	0.43284	0.38818	-0.319335	-0.433896	-0.410557	0.424652	0.481409	-0.450583	0.339618
0.37647	0.440839	0.446124	-0.48665	-0.446524	0.421991	0.402533	0.415139	0.386286	0.402402	0.467563	-0.44651	0.453373	-0.471088	0.475575	-0.500071	-0.414812	-0.461134	-0.394688	-0.469216	-0.428794	-0.461824	0.319941	0.320889	0.393886	-0.379041	-0.478844	-0.45474	0.438012	0.437384	-0.361664	0.473032
0.461487	0.465741	0.51379	-0.493391	-0.469825	0.390935	0.456589	0.496054	0.420878	0.413967	0.496077	-0.468538	0.490368	-0.42009	0.417086	-0.518809	-0.440833	-0.410082	-0.42352	-0.481111	-0.477494	-0.408125	0.528008	0.449552	0.463403	-0.406176	-0.49863	-0.413095	0.389984	0.343782	-0.398507	0.411109
0.454454	0.456955	0.393141	-0.495213	-0.392756	0.477594	0.441574	0.362027	0.466365	0.409058	0.378055	-0.494482	0.389644	-0.475623	0.486912	-0.387806	-0.441869	-0.43332	-0.428035	-0.368975	-0.474737	-0.539848	0.484399	0.449816	0.467039	-0.428482	-0.465831	-0.438569	0.425282	0.423218	-0.395879	0.431377
0.392971	0.395595	0.365979	-0.34445	-0.507038	0.386205	0.367696	0.439843	0.453189	0.384856	0.459796	-0.491946	0.3124	-0.563045	0.458447	-0.433224	-0.404693	-0.213137	-0.42855	-0.427957	-0.502659	-0.572172	0.395854	0.395455	0.477413	-0.35604	-0.397857	-0.444319	0.512717	0.383678	-0.406511	0.381194
0.496968	0.39854	0.478149	-0.476295	-0.440637	0.374151	0.448767	0.427055	0.446675	0.40012	0.487558	-0.374838	0.416339	-0.436005	0.473709	-0.43098	-0.44725	-0.40828	-0.438038	-0.475355	-0.421084	-0.473814	0.402426	0.473658	0.486193	-0.427668	-0.451998	-0.390012	0.401546	0.501994	-0.435252	0.425243
0.497544	0.299281	0.409992	-0.463999	-0.389888	0.415825	0.368139	0.425283	0.379873	0.40416	0.37673	-0.38262	0.346205	-0.307944	0.389427	-0.269226	-0.371015	-0.423853	-0.391399	-0.333293	-0.357256	-0.435508	0.453696	0.433038	0.364346	-0.384916	-0.400644	-0.477914	0.464541	0.462838	-0.45295	0.360381
0.442978	0.366173	0.456394	-0.428519	-0.429649	0.482971	0.455147	0.45447	0.413089	0.461588	0.420771	-0.420858	0.453082	-0.442317	0.486562	-0.370555	-0.453899	-0.422237	-0.528657	-0.393409	-0.443813	-0.370946	0.419092	0.500335	0.522475	-0.489125	-0.468649	-0.478442	0.425422	0.513429	-0.454505	0.506753
0.393379	0.445832	0.440963	-0.445729	-0.42266	0.415305	0.442352	0.415425	0.481105	0.454481	0.468546	-0.383556	0.486983	-0.372779	0.470953	-0.449332	-0.473778	-0.43593	-0.432023	-0.44789	-0.383678	-0.490658	0.441573	0.410004	0.40728	-0.348807	-0.39333	-0.384217	0.483165	0.475921	-0.376852	0.467791
0.492933	0.403761	0.433602	-0.462598	-0.487743	0.396586	0.451781	0.45527	0.465861	0.446142	0.518541	-0.416445	0.43509	-0.411954	0.519219	-0.344156	-0.449614	-0.499344	-0.4048	-0.377698	-0.484871	-0.423898	0.472084	0.304921	0.466086	-0.457833	-0.441214	-0.401042	0.435468	0.421326	-0.417743	0.455376
0.387972	0.449047	0.393339	-0.466907	-0.401113	0.429653	0.473932	0.392938	0.475258	0.486268	0.494438	-0.327093	0.469083	-0.552789	0.422442	-0.466991	-0.429378	-0.475795	-0.428979	-0.394485	-0.396763	-0.380245	0.446405	0.476835	0.384947	-0.395297	-0.366799	-0.362864	0.425184	0.394976	-0.422803	0.509097
0.479822	0.396575	0.456715	-0.394919	-0.490754	0.450542	0.401582	0.525038	0.467661	0.518556	0.415737	-0.380948	0.4871	-0.405315	0.433988	-0.49338	-0.505548	-0.506151	-0.469272	-0.532714	-0.479648	-0.346071	0.47359	0.497139	0.519527	-0.411596	-0.465729	-0.449051	0.416672	0.396167	-0.449347	0.377112
0.435694	0.508536	0.419506	-0.383137	-0.492753	0.457704	0.484153	0.391437	0.435173	0.447347	0.487942	-0.427899	0.506577	-0.450894	0.475164	-0.417982	-0.353537	-0.510916	-0.488426	-0.46913	-0.419386	-0.406221	0.475737	0.48171	0.447239	-0.479139	-0.408878	-0.401813	0.510481	0.409661	-0.385715	0.458379
0.398243	0.363802	0.435731	-0.514236	-0.460947	0.460507	0.498041	0.456502	0.51299	0.51373	0.473898	-0.404168	0.489413	-0.454876	0.431485	-0.445632	-0.410528	-0.453047	-0.490715	-0.501333	-0.470435	-0.424152	0.478562	0.335813	0.501623	-0.489157	-0.458485	-0.523544	0.421754	0.436733	-0.418112	0.408742
0.499073	0.466641	0.47184	-0.517375	-0.437029	0.486902	0.47749	0.523601	0.41983	0.473534	0.49105	-0.422791	0.398105	-0.542475	0.491979	-0.368225	-0.437422	-0.455451	-0.451853	-0.467019	-0.480233	-0.5104	0.48138	0.457268	0.422883	-0.412118	-0.471313	-0.421441	0.465937	0.476654	-0.462051	0.452378
0.479835	0.375982	0.494348	-0.474775	-0.430801	0.358183	0.431893	0.388407	0.450495	0.480181	0.443551	-0.456841	0.393494	-0.406199	0.439265	-0.437681	-0.499618	-0.461467	-0.380431	-0.364853	-0.455519	-0.320157	0.48769	0.46191	0.39323	-0.413655	-0.414249	-0.452212	0.389331	0.461143	-0.457697	0.458941
0.463272	0.392222	0.416553	-0.511137	-0.473999	0.405472	0.415934	0.402805	0.449427	0.491346	0.418339	-0.402127	0.40872	-0.388214	0.446329	-0.543461	-0.372276	-0.453198	-0.473105	-0.41349	-0.441981	-0.495033	0.438625	0.466247	0.461028	-0.471538	-0.415648	-0.513304	0.415332	0.36361	-0.485017	0.341148
0.478322	0.346864	0.46652	-0.48116	-0.487737	0.486649	0.409261	0.432137	0.430787	0.448344	0.439764	-0.443568	0.369502	-0.463053	0.41028	-0.455232	-0.416332	-0.512823	-0.464449	-0.362671	-0.445646	-0.456237	0.389373	0.413754	0.492777	-0.451379	-0.411127	-0.431775	0.503802	0.456475	-0.482044	0.453087
0.406471	0.339055	0.426661	-0.471831	-0.412607	0.352426	0.380816	0.462846	0.435853	0.353287	0.434749	-0.43459	0.410008	-0.299391	0.457609	-0.447347	-0.384715	-0.426912	-0.382674	-0.437768	-0.339509	-0.28801	0.338009	0.366578	0.450292	-0.365759	-0.270837	-0.377692	0.423245	0.368076	-0.442558	0.296668
0.446592	0.320678	0.375962	-0.466818	-0.488724	0.434226	0.389337	0.503923	0.455192	0.390187	0.436876	-0.455474	0.34478	-0.479982	0.422841	-0.477009	-0.490585	-0.472835	-0.362089	-0.353532	-0.381895	-0.396893	0.348528	0.410217	0.468777	-0.395713	-0.462587	-0.433653	0.502939	0.420462	-0.363508	0.326054
0.506845	0.401152	0.412706	-0.417486	-0.449815	0.509401	0.413234	0.480203	0.436806	0.474766	0.502232	-0.458111	0.463707	-0.474346	0.410447	-0.368863	-0.452479	-0.440289	-0.422101	-0.490612	-0.463706	-0.365532	0.429258	0.417961	0.405464	-0.446385	-0.492781	-0.462281	0.510005	0.395513	-0.438815	0.411518
0.403554	0.463243	0.404975	-0.421718	-0.488306	0.45114	0.418582	0.369505	0.432838	0.43778	0.521576	-0.496259	0.424671	-0.228435	0.431988	-0.465363	-0.341111	-0.436386	-0.421462	-0.428864	-0.50009	-0.39723	0.355112	0.575115	0.353274	-0.336152	-0.369751	-0.511262	0.436091	0.330636	-0.443619	0.500534
0.4033	0.410734	0.466622	-0.51841	-0.420247	0.469549	0.397215	0.408153	0.438027	0.427588	0.469761	-0.428146	0.467915	-0.515318	0.470085	-0.49872	-0.443721	-0.395916	-0.412518	-0.382292	-0.492735	-0.344713	0.55757	0.382918	0.498231	-0.481516	-0.443486	-0.402431	0.480046	0.523127	-0.414148	0.533136
0.420984	0.463419	0.419897	-0.347214	-0.447746	0.490151	0.355393	0.458954	0.434934	0.404828	0.41293	-0.425365	0.442662	-0.391188	0.370785	-0.554671	-0.316169	-0.403457	-0.419411	-0.441552	-0.449942	-0.389562	0.34223	0.453713	0.471939	-0.346376	-0.481659	-0.457231	0.418854	0.36762	-0.476521	0.476786
0.449907	0.430119	0.419584	-0.499009	-0.426141	0.41458	0.465207	0.49501	0.458141	0.390626	0.497138	-0.496686	0.379297	-0.528099	0.506108	-0.405042	-0.418806	-0.380071	-0.464912	-0.392462	-0.507376	-0.402813	0.403586	0.398297	0.479984	-0.379046	-0.387585	-0.496783	0.495042	0.493401	-0.454542	0.428578
0.393871	0.382516	0.404365	-0.428455	-0.357085	0.422832	0.42736	0.476874	0.423386	0.45992	0.454008	-0.451564	0.429517	-0.242169	0.477915	-0.284169	-0.399157	-0.356592	-0.382619	-0.365152	-0.43777	-0.422694	0.381087	0.445317	0.437031	-0.421689	-0.392736	-0.450471	0.401821	0.347316	-0.491933	0.491294
0.484261	0.527885	0.464694	-0.436262	-0.438025	0.470893	0.505881	0.466302	0.420393	0.427184	0.378569	-0.365726	0.518641	-0.384368	0.462243	-0.269806	-0.217333	-0.320698	-0.405385	-0.400589	-0.454615	-0.471786	0.373068	0.469304	0.367627	-0.495953	-0.404768	-0.35601	0.402901	0.525205	-0.473135	0.432035
0.454323	0.446814	0.469346	-0.4511	-0.441411	0.442849	0.442773	0.501152	0.444181	0.489168	0.338211	-0.457906	0.41742	-0.423263	0.420282	-0.519752	-0.34885	-0.451223	-0.405525	-0.488734	-0.405867	-0.422666	0.32676	0.399723	0.465004	-0.468576	-0.396349	-0.445086	0.404412	0.396472	-0.398094	0.379146
0.411215	0.504314	0.435992	-0.379753	-0.42561	0.49153	0.535528	0.425447	0.409031	0.524261	0.505117	-0.366908	0.362195	-0.388061	0.399561	-0.57221	-0.546566	-0.532633	-0.494701	-0.334942	-0.483808	-0.441317	0.599015	0.379551	0.510539	-0.505412	-0.27296	-0.372709	0.521168	0.482435	-0.397611	0.456428
0.463532	0.386075	0.457342	-0.428488	-0.38004	0.404635	0.494218	0.416643	0.418212	0.469288	0.382361	-0.467288	0.3591	-0.350555	0.417944	-0.345433	-0.37094	-0.366037	-0.388697	-0.435265	-0.380125	-0.442511	0.365005	0.312448	0.366264	-0.413009	-0.423327	-0.332116	0.399919	0.467785	-0.433098	0.386961
0.516347	0.401921	0.420608	-0.433048	-0.415842	0.386463	0.431997	0.462851	0.44533	0.496452	0.487824	-0.427146	0.342462	-0.578517	0.520534	-0.468272	-0.37838	-0.401582	-0.432579	-0.514936	-0.437066	-0.382912	0.55894	0.399798	0.504233	-0.453537	-0.481195	-0.542923	0.491692	0.319764	-0.482946	0.496641
0.424432	0.35861	0.467782	-0.377954	-0.468305	0.40021	0.366598	0.436698	0.491117	0.384734	0.408961	-0.401797	0.466858	-0.442669	0.511019	-0.458658	-0.426074	-0.37713	-0.456315	-0.429114	-0.460306	-0.414007	0.361705	0.368011	0.465498	-0.406232	-0.419043	-0.441274	0.463585	0.426926	-0.47872	0.480656
0.410552	0.374634	0.447277	-0.366302	-0.43887	0.456432	0.427281	0.454164	0.373238	0.390626	0.379946	-0.446326	0.394696	-0.320285	0.468469	-0.463923	-0.456002	-0.347215	-0.405131	-0.383271	-0.478378	-0.422522	0.414418	0.351597	0.43128	-0.441675	-0.513058	-0.467473	0.422492	0.414528	-0.424239	0.392501
0.379355	0.37481	0.30798	-0.399726	-0.360148	0.315202	0.400983	0.434977	0.28379	0.412848	0.329882	-0.392943	0.338429	-0.405527	0.367631	-0.238692	-0.398437	-0.327966	-0.432309	-0.236655	-0.389781	-0.453995	0.355842	0.525895	0.452168	-0.41483	-0.361485	-0.414693	0.36302	0.468855	-0.354957	0.277784
0.434513	0.275088	0.386154	-0.280528	-0.370348	0.401577	0.204634	0.376672	0.491823	0.342014	0.411343	-0.424161	0.307958	-0.258199	0.435417	-0.385462	-0.46497	-0.493662	-0.344227	-0.302029	-0.413329	-0.376411	0.479297	0.354884	0.343763	-0.447435	-0.342966	-0.396605	0.412835	0.394679	-0.402579	0.499434
0.408133	0.455631	0.403582	-0.388158	-0.350429	0.410593	0.461501	0.427359	0.383481	0.418655	0.346874	-0.44535	0.385725	-0.311978	0.415012	-0.444541	-0.489544	-0.468598	-0.44712	-0.389071	-0.356714	-0.310067	0.399487	0.355095	0.446143	-0.474879	-0.420605	-0.448178	0.361304	0.237016	-0.480647	0.430027
0.449319	0.403407	0.431146	-0.480482	-0.413126	0.408713	0.410856	0.498633	0.42547	0.456604	0.450937	-0.452187	0.385906	-0.443806	0.475805	-0.395609	-0.43082	-0.507077	-0.464533	-0.474615	-0.384305	-0.38954	0.412458	0.494613	0.503691	-0.462468	-0.416452	-0.477691	0.486094	0.479355	-0.515325	0.455422
0.450655	0.459722	0.400236	-0.434634	-0.447407	0.4355	0.478506	0.431871	0.498851	0.433311	0.393953	-0.481585	0.444742	-0.450176	0.49309	-0.444252	-0.477442	-0.389609	-0.447678	-0.391188	-0.502999	-0.392082	0.474735	0.393196	0.376621	-0.429613	-0.401713	-0.444716	0.461555	0.408635	-0.420825	0.499149
0.450851	0.518345	0.421708	-0.443509	-0.453957	0.434993	0.475492	0.452573	0.425326	0.394067	0.514334	-0.422855	0.374042	-0.431224	0.464429	-0.543888	-0.43429	-0.441504	-0.461766	-0.429397	-0.440426	-0.445825	0.444639	0.524737	0.4935	-0.505287	-0.374732	-0.472646	0.440571	0.446232	-0.383149	0.334468
0.481613	0.463244	0.449713	-0.442193	-0.461837	0.429634	0.446745	0.465572	0.4989	0.501131	0.484102	-0.419622	0.359669	-0.559641	0.525553	-0.463829	-0.44676	-0.343035	-0.428754	-0.385677	-0.457222	-0.420635	0.476803	0.491609	0.470417	-0.493112	-0.403976	-0.429968	0.511789	0.509096	-0.496364	0.459075
0.470652	0.407312	0.424335	-0.420571	-0.33666	0.464471	0.520131	0.439412	0.405206	0.437414	0.42993	-0.459276	0.350474	-0.417136	0.397425	-0.260035	-0.482979	-0.204863	-0.547894	-0.416729	-0.459587	-0.298134	0.303023	0.263594	0.282522	-0.432726	-0.499633	-0.361134	0.471652	0.306517	-0.294352	0.551564
0.429345	0.431242	0.476013	-0.422449	-0.419057	0.428936	0.418138	0.438784	0.372201	0.417683	0.476801	-0.466597	0.417273	-0.38638	0.391826	-0.43491	-0.403885	-0.357885	-0.407643	-0.393393	-0.406249	-0.34811	0.363872	0.455117	0.462197	-0.397478	-0.44525	-0.466629	0.458357	0.377874	-0.404097	0.405234
0.507478	0.421291	0.44961	-0.433278	-0.455779	0.409858	0.457751	0.520728	0.445651	0.499055	0.371982	-0.494897	0.438434	-0.414961	0.437014	-0.46352	-0.372534	-0.539099	-0.452603	-0.42818	-0.523731	-0.461511	0.47267	0.355159	0.474892	-0.464706	-0.470768	-0.389971	0.433836	0.457144	-0.517438	0.446646
0.435359	0.350017	0.439398	-0.441901	-0.432749	0.427656	0.398754	0.446845	0.456943	0.401536	0.372783	-0.408735	0.428487	-0.350957	0.477181	-0.301611	-0.464023	-0.371799	-0.494886	-0.352103	-0.381702	-0.543676	0.468703	0.544849	0.460908	-0.432411	-0.439334	-0.507239	0.460166	0.456695	-0.378532	0.288446
0.438955	0.511239	0.464923	-0.458109	-0.433795	0.402057	0.459253	0.494795	0.430987	0.514497	0.410604	-0.510527	0.404222	-0.451311	0.447998	-0.3501	-0.346955	-0.41328	-0.447719	-0.501658	-0.468819	-0.47683	0.464533	0.419063	0.484619	-0.505005	-0.438855	-0.516507	0.4224	0.368729	-0.417052	0.423914
0.52012	0.399388	0.473054	-0.51115	-0.403643	0.506215	0.462947	0.48029	0.543214	0.345284	0.459579	-0.420854	0.524459	-0.46423	0.409887	-0.461031	-0.472709	-0.39849	-0.386939	-0.474167	-0.427132	-0.389696	0.448743	0.296399	0.370401	-0.478438	-0.404965	-0.410979	0.534708	0.32878	-0.413542	0.409544
0.430516	0.446032	0.419543	-0.393342	-0.434997	0.411173	0.418365	0.401744	0.480056	0.436082	0.448859	-0.410623	0.461879	-0.387207	0.485268	-0.451605	-0.422907	-0.434276	-0.412578	-0.362941	-0.44166	-0.414291	0.357645	0.430186	0.43912	-0.440682	-0.475287	-0.399785	0.432928	0.456602	-0.410578	0.441831
0.439589	0.473964	0.425527	-0.376322	-0.456995	0.396411	0.424302	0.433658	0.427062	0.474399	0.50262	-0.417325	0.415588	-0.424863	0.426661	-0.439876	-0.432053	-0.416907	-0.410698	-0.409121	-0.462467	-0.38777	0.472468	0.374978	0.412634	-0.484997	-0.439446	-0.468175	0.38952	0.503673	-0.483356	0.414652
0.390012	0.329486	0.336908	-0.236261	-0.315865	0.410304	0.307173	0.347999	0.310279	0.373639	0.470679	-0.237496	0.274214	0.0145209	0.297693	0.0287803	-0.195014	-0.0743868	-0.420392	-0.336362	-0.396509	-0.412336	0.305667	0.3116	0.268944	-0.175601	-0.282198	-0.311278	0.373723	0.332885	-0.425054	0.237505
0.500466	0.492784	0.499902	-0.336273	-0.500782	0.367151	0.409148	0.400815	0.465619	0.395834	0.403139	-0.455017	0.516874	-0.44342	0.437798	-0.463498	-0.491616	-0.472398	-0.469268	-0.430606	-0.475158	-0.480795	0.534196	0.383046	0.490972	-0.406795	-0.395317	-0.451091	0.479538	0.307666	-0.391126	0.454422
0.414005	0.508805	0.431906	-0.492389	-0.484292	0.44943	0.472068	0.501308	0.418528	0.397273	0.335631	-0.452314	0.375422	-0.479588	0.417412	-0.308894	-0.365655	-0.439976	-0.478611	-0.483287	-0.469677	-0.430621	0.426979	0.477139	0.36579	-0.484288	-0.44395	-0.393683	0.475454	0.472689	-0.384719	0.320999
0.364839	0.607143	0.327994	-0.510048	-0.395752	0.411083	0.434702	0.416972	0.505142	0.416041	0.518829	-0.466508	0.483024	-0.499108	0.358344	-0.62595	-0.35661	-0.427618	-0.425735	-0.339331	-0.39897	-0.403625	0.350324	0.481815	0.465471	-0.478161	-0.462063	-0.562219	0.430427	0.512772	-0.387934	0.410356
0.415958	0.446632	0.460067	-0.550646	-0.426462	0.53921	0.43529	0.517216	0.508307	0.454514	0.440536	-0.450216	0.523814	-0.39612	0.451689	-0.44553	-0.503282	-0.434449	-0.453001	-0.470731	-0.434682	-0.407928	0.432526	0.475687	0.538935	-0.475733	-0.516858	-0.470148	0.43168	0.483758	-0.458268	0.321841
0.275952	0.417085	0.413714	-0.178623	-0.337806	0.34841	0.224971	0.354773	0.426821	0.372152	0.351935	-0.412832	0.230022	-0.291909	0.41842	-0.194155	-0.184346	-0.266039	-0.355398	-0.425756	-0.422684	-0.208619	0.253851	0.54385	0.260719	-0.360473	-0.332941	-0.439461	0.263902	0.46736	-0.429122	0.337585
0.420485	0.286869	0.383045	-0.471191	-0.41442	0.424612	0.37019	0.41317	0.4352	0.493216	0.322524	-0.359702	0.400213	-0.433494	0.41927	-0.470326	-0.388592	-0.461785	-0.417982	-0.433496	-0.352971	-0.341843	0.380376	0.407356	0.300095	-0.387273	-0.45567	-0.498978	0.380921	0.336666	-0.370565	0.299033
0.500166	0.28017	0.53093	-0.450461	-0.510087	0.398119	0.32892	0.417053	0.550315	0.389264	0.502656	-0.452408	0.429526	-0.337874	0.493454	-0.445059	-0.388762	-0.297187	-0.406106	-0.437824	-0.362159	-0.463776	0.484756	0.327802	0.420046	-0.373094	-0.355638	-0.412699	0.411973	0.43927	-0.516591	0.482472
0.472546	0.412914	0.499417	-0.432808	-0.454124	0.475309	0.419673	0.508871	0.426218	0.394733	0.493656	-0.384257	0.464599	-0.490359	0.512173	-0.522859	-0.456842	-0.44582	-0.484742	-0.434395	-0.496965	-0.448576	0.454413	0.372397	0.465493	-0.435105	-0.423156	-0.399019	0.454488	0.382171	-0.479763	0.482502
0.442238	0.447574	0.458896	-0.457598	-0.500103	0.400938	0.503183	0.457872	0.439227	0.465653	0.414353	-0.500381	0.453079	-0.448816	0.483169	-0.515453	-0.490181	-0.454907	-0.498381	-0.524428	-0.484859	-0.500473	0.49447	0.450198	0.45075	-0.414867	-0.413991	-0.443087	0.4139	0.494726	-0.429574	0.460151
0.514469	0.38892	0.442634	-0.462767	-0.498765	0.369336	0.428766	0.49023	0.537084	0.503025	0.390741	-0.40515	0.394373	-0.53558	0.419738	-0.419329	-0.440179	-0.461696	-0.518835	-0.393351	-0.50242	-0.505503	0.415008	0.416739	0.443783	-0.426875	-0.445675	-0.484854	0.40714	0.470133	-0.424025	0.409655
0.506071	0.368837	0.526289	-0.356398	-0.526096	0.374302	0.392693	0.388365	0.406319	0.457073	0.475519	-0.360021	0.439361	-0.45665	0.422559	-0.418471	-0.524939	-0.268558	-0.403739	-0.379416	-0.408981	-0.375884	0.507765	0.399626	0.474195	-0.430106	-0.375788	-0.407457	0.407315	0.51436	-0.482492	0.575675
0.361368	0.422866	0.449161	-0.497238	-0.436846	0.365732	0.354149	0.465141	0.43666	0.38027	0.412989	-0.457137	0.457874	-0.467524	0.405497	-0.409813	-0.502916	-0.355337	-0.450269	-0.297412	-0.370091	-0.429209	0.433351	0.414427	0.445721	-0.482329	-0.451959	-0.45376	0.381449	0.419195	-0.467564	0.425557
0.50328	0.438413	0.449765	-0.479326	-0.417973	0.326936	0.457591	0.424759	0.484308	0.485353	0.406491	-0.351774	0.465055	-0.474385	0.502624	-0.449063	-0.502444	-0.376116	-0.490479	-0.394519	-0.474597	-0.287199	0.412046	0.322398	0.388468	-0.433414	-0.458338	-0.412632	0.399587	0.373909	-0.403288	0.452794
0.405306	0.493353	0.425198	-0.507439	-0.504243	0.501654	0.394653	0.446136	0.430161	0.475373	0.4994	-0.456919	0.403548	-0.315353	0.425218	-0.374811	-0.467022	-0.395169	-0.468465	-0.503606	-0.399898	-0.356786	0.455167	0.498474	0.438933	-0.420721	-0.414954	-0.492544	0.466718	0.408546	-0.454035	0.439256
0.486146	0.408137	0.404747	-0.356456	-0.453606	0.467891	0.468128	0.412132	0.451396	0.504535	0.359273	-0.404506	0.403795	-0.55459	0.495864	-0.370144	-0.533972	-0.461277	-0.50122	-0.508856	-0.476595	-0.349292	0.431621	0.447396	0.473682	-0.371778	-0.380615	-0.409802	0.429602	0.404173	-0.418745	0.441309
0.43588	0.456303	0.416079	-0.488057	-0.496634	0.499287	0.404038	0.510567	0.499517	0.415434	0.489893	-0.488719	0.4111	-0.501135	0.463971	-0.510072	-0.538541	-0.470942	-0.498554	-0.423468	-0.462551	-0.39424	0.506086	0.462867	0.497655	-0.401988	-0.409674	-0.510899	0.449044	0.445757	-0.486867	0.435639
0.458648	0.453256	0.374177	-0.404105	-0.430204	0.355102	0.433321	0.40174	0.40724	0.425569	0.375659	-0.422669	0.436565	-0.355049	0.441607	-0.25247	-0.393221	-0.380177	-0.362756	-0.413027	-0.468778	-0.377347	0.430611	0.337457	0.486926	-0.431163	-0.444025	-0.458924	0.463339	0.481359	-0.423239	0.421243
0.46532	0.409662	0.369913	-0.389113	-0.410306	0.395785	0.43849	0.437587	0.418877	0.429619	0.43865	-0.403395	0.387071	-0.456262	0.460809	-0.326136	-0.465908	-0.371721	-0.435087	-0.319668	-0.436793	-0.446853	0.479321	0.432335	0.482278	-0.376801	-0.42996	-0.479553	0.430352	0.386836	-0.431641	0.390262
0.408581	0.476565	0.343314	-0.391308	-0.368073	0.53017	0.440431	0.443131	0.338411	0.489716	0.436299	-0.449237	0.442433	-0.469562	0.393265	-0.542219	-0.300555	-0.54553	-0.446819	-0.421184	-0.39946	-0.3861	0.386677	0.485109	0.405753	-0.340102	-0.44886	-0.50693	0.410014	0.399856	-0.319243	0.524767
0.52477	0.42852	0.481909	-0.436489	-0.425667	0.485543	0.461951	0.522274	0.44199	0.450587	0.502422	-0.476682	0.428531	-0.449591	0.454417	-0.447934	-0.48599	-0.527256	-0.505596	-0.447885	-0.439502	-0.436557	0.471347	0.42779	0.446373	-0.503973	-0.481239	-0.384633	0.425023	0.476292	-0.45895	0.466665
0.456907	0.464801	0.490803	-0.441717	-0.417736	0.430238	0.375408	0.414293	0.496614	0.508244	0.422842	-0.437723	0.458987	-0.50798	0.497275	-0.4903	-0.470967	-0.39726	-0.450215	-0.454498	-0.393285	-0.390354	0.416441	0.496297	0.469068	-0.486201	-0.423171	-0.457407	0.438133	0.395373	-0.476264	0.479655
0.371315	0.449195	0.433093	-0.326639	-0.473293	0.312647	0.377185	0.422006	0.389647	0.442519	0.477529	-0.387395	0.448116	-0.468876	0.404874	-0.474584	-0.405053	-0.428281	-0.384131	-0.434441	-0.409715	-0.503708	0.42979	0.444841	0.404584	-0.453037	-0.366443	-0.389369	0.368457	0.405453	-0.441794	0.418558
0.461293	0.376411	0.499245	-0.398577	-0.475226	0.450599	0.336823	0.441525	0.449026	0.489187	0.510606	-0.390372	0.410087	-0.440664	0.518798	-0.457831	-0.380882	-0.429301	-0.401005	-0.384011	-0.457549	-0.493808	0.379212	0.334492	0.43394	-0.447549	-0.416037	-0.419943	0.45103	0.435318	-0.438713	0.443735
0.503812	0.436992	0.519611	-0.476638	-0.501601	0.568072	0.238712	0.431938	0.375957	0.463725	0.533064	-0.480235	0.462232	-0.268984	0.485774	-0.44853	-0.357613	-0.505679	-0.40368	-0.329116	-0.428713	-0.484019	0.355841	0.516736	0.377503	-0.320127	-0.27675	-0.363073	0.522029	0.4625	-0.488564	0.490344
0.485629	0.475654	0.39883	-0.474747	-0.465224	0.452243	0.45255	0.447838	0.370922	0.430601	0.477037	-0.490699	0.510319	-0.368692	0.425727	-0.305	-0.466129	-0.407898	-0.417811	-0.413529	-0.457387	-0.504609	0.454475	0.421387	0.438783	-0.395196	-0.376234	-0.413519	0.455641	0.423076	-0.479674	0.43213
0.270387	0.34683	0.376818	-0.448258	-0.379615	0.381034	0.409645	0.307004	0.454181	0.329476	0.267713	-0.326057	0.304263	-0.36654	0.425121	-0.384813	-0.284962	-0.35193	-0.331588	-0.337565	-0.485862	-0.471114	0.377218	0.456163	0.344482	-0.455438	-0.309364	-0.482337	0.396835	0.414992	-0.389672	0.37284
0.452542	0.447842	0.431058	-0.44595	-0.401439	0.468182	0.400063	0.472684	0.484287	0.464214	0.443482	-0.449595	0.428263	-0.434223	0.441474	-0.37642	-0.41196	-0.45088	-0.462701	-0.492374	-0.48032	-0.396438	0.47312	0.408614	0.39908	-0.389078	-0.469585	-0.375873	0.449914	0.42136	-0.435935	0.447898
0.450037	0.43843	0.451705	-0.405017	-0.455641	0.450379	0.391615	0.427464	0.456411	0.413296	0.469142	-0.497816	0.511478	-0.431767	0.484473	-0.378603	-0.43017	-0.480531	-0.498582	-0.426708	-0.472392	-0.474244	0.437722	0.448658	0.457853	-0.503092	-0.411006	-0.389532	0.458754	0.386887	-0.482917	0.401768
0.402398	0.440986	0.464289	-0.511416	-0.518067	0.436038	0.423342	0.557944	0.507928	0.433393	0.551163	-0.485302	0.397232	-0.495425	0.416129	-0.35972	-0.453457	-0.528621	-0.499612	-0.559218	-0.407842	-0.343841	0.448753	0.51007	0.552132	-0.513984	-0.517328	-0.503083	0.498379	0.426512	-0.426297	0.389895
0.444916	0.447107	0.484402	-0.429075	-0.419106	0.480129	0.504094	0.436806	0.403141	0.396745	0.434817	-0.427815	0.529651	-0.492562	0.489342	-0.317386	-0.438521	-0.398957	-0.44715	-0.481232	-0.397024	-0.517123	0.518491	0.364242	0.45389	-0.396428	-0.419523	-0.468127	0.46859	0.468136	-0.523458	0.421945
0.407961	0.452822	0.379126	-0.413199	-0.474027	0.523094	0.446019	0.392579	0.451549	0.436188	0.373149	-0.466014	0.380829	-0.503083	0.534384	-0.387613	-0.447557	-0.458353	-0.440666	-0.435791	-0.463153	-0.403021	0.352055	0.479686	0.439258	-0.425501	-0.35546	-0.510808	0.494684	0.473062	-0.486559	0.320348
0.462715	0.394613	0.478783	-0.499059	-0.467617	0.41993	0.439733	0.495958	0.489001	0.402781	0.410499	-0.463072	0.436815	-0.460139	0.406648	-0.456364	-0.473337	-0.543574	-0.436125	-0.429248	-0.438121	-0.349527	0.40716	0.434814	0.506034	-0.366277	-0.436475	-0.468376	0.48728	0.494219	-0.393269	0.448195
0.387646	0.388963	0.476012	-0.419155	-0.484657	0.437486	0.452943	0.396383	0.49651	0.38863	0.390578	-0.438637	0.458491	-0.336916	0.438237	-0.526472	-0.452358	-0.417346	-0.467422	-0.498549	-0.420453	-0.371743	0.481717	0.402651	0.395163	-0.43151	-0.421506	-0.457879	0.365343	0.44436	-0.440399	0.513748
0.450125	0.463848	0.498481	-0.413567	-0.445374	0.44582	0.367718	0.421754	0.429183	0.458654	0.462358	-0.471188	0.484976	-0.418812	0.465051	-0.356996	-0.406319	-0.45515	-0.41585	-0.341158	-0.417359	-0.488821	0.410339	0.296094	0.501501	-0.456029	-0.482583	-0.378896	0.466211	0.400012	-0.406283	0.454797
0.395976	0.354811	0.399423	-0.31104	-0.381575	0.443083	0.33114	0.41548	0.424893	0.381867	0.373436	-0.362172	0.31302	-0.470629	0.430162	-0.360236	-0.434908	-0.37418	-0.370368	-0.431828	-0.434851	-0.312964	0.293323	0.330778	0.39866	-0.359016	-0.362634	-0.339032	0.427833	0.376616	-0.395027	0.428007
0.387921	0.388743	0.416003	-0.392896	-0.399985	0.3251	0.289116	0.320645	0.357219	0.307464	0.324427	-0.34487	0.306741	-0.221385	0.356944	-0.263155	-0.304176	-0.190681	-0.383173	-0.419763	-0.312708	-0.467653	0.230579	0.480125	0.408764	-0.366394	-0.354474	-0.4013	0.353189	0.29464	-0.397	0.440219
0.431766	0.468573	0.477769	-0.475351	-0.487596	0.413942	0.441304	0.425413	0.467976	0.444286	0.447738	-0.40773	0.381531	-0.463746	0.49476	-0.307525	-0.461835	-0.374704	-0.468989	-0.357234	-0.467041	-0.410121	0.402462	0.402923	0.399211	-0.411255	-0.414913	-0.398058	0.49256	0.395911	-0.487804	0.361367
0.365589	0.406894	0.294159	-0.501808	-0.349946	0.460329	0.45031	0.437084	0.362837	0.406662	0.454284	-0.435228	0.509187	-0.367815	0.270257	-0.574638	-0.336374	-0.391422	-0.396532	-0.483788	-0.442991	-0.279224	0.384689	0.374536	0.280982	-0.383124	-0.437713	-0.478922	0.425196	0.367782	-0.394587	0.50968
0.443334	0.362202	0.452891	-0.471869	-0.459412	0.497077	0.453165	0.467093	0.413615	0.446894	0.43512	-0.408623	0.350548	-0.424634	0.390039	-0.335173	-0.43911	-0.396447	-0.475311	-0.492651	-0.395733	-0.484077	0.47308	0.459508	0.476651	-0.476046	-0.412208	-0.471141	0.434391	0.405488	-0.418934	0.390277
0.5154	0.483947	0.423717	-0.490571	-0.482491	0.506875	0.416064	0.455746	0.517521	0.458044	0.451609	-0.515877	0.468737	-0.441973	0.470013	-0.405582	-0.441627	-0.437841	-0.395355	-0.419182	-0.43837	-0.410707	0.420382	0.389276	0.465584	-0.483039	-0.437203	-0.41026	0.503621	0.463581	-0.417266	0.383586
0.425775	0.370456	0.369421	-0.415862	-0.363834	0.378805	0.446045	0.413689	0.382839	0.372517	0.342583	-0.434712	0.502823	-0.516376	0.488656	-0.519514	-0.487754	-0.408028	-0.345181	-0.3017	-0.477715	-0.389634	0.405786	0.332133	0.47383	-0.43771	-0.497939	-0.461649	0.423539	0.316371	-0.454678	0.478485
0.410117	0.332278	0.394492	-0.519307	-0.405107	0.372909	0.370628	0.50718	0.516775	0.343021	0.507903	-0.334444	0.478544	-0.567234	0.502405	-0.353424	-0.4389	-0.395035	-0.462128	-0.490253	-0.395549	-0.348226	0.468818	0.27936	0.443937	-0.385875	-0.518459	-0.374739	0.445095	0.387287	-0.343932	0.378662
0.391598	0.333926	0.40997	-0.460312	-0.482402	0.412417	0.387603	0.395723	0.42477	0.46322	0.385263	-0.400487	0.45949	-0.361959	0.360537	-0.457552	-0.402559	-0.446479	-0.372823	-0.450287	-0.357747	-0.308448	0.462466	0.384688	0.412114	-0.406184	-0.434669	-0.320752	0.348049	0.463979	-0.420857	0.442516
0.373348	0.466959	0.471057	-0.375873	-0.455011	0.406337	0.453889	0.385428	0.466953	0.439784	0.388298	-0.460435	0.344849	-0.371657	0.384014	-0.366747	-0.429837	-0.479907	-0.397348	-0.455332	-0.456072	-0.409119	0.485342	0.32731	0.440868	-0.499696	-0.407958	-0.450475	0.364316	0.453104	-0.448366	0.449486
0.425252	0.40413	0.492747	-0.528097	-0.425967	0.385418	0.434918	0.486853	0.399842	0.414843	0.415864	-0.485006	0.356433	-0.426025	0.514986	-0.383955	-0.377279	-0.509395	-0.44098	-0.429043	-0.515293	-0.526403	0.45599	0.470543	0.45474	-0.414634	-0.42043	-0.530608	0.467266	0.542052	-0.473127	0.544713
0.42393	0.404136	0.440972	-0.432419	-0.450974	0.467943	0.414814	0.488751	0.472563	0.508731	0.389047	-0.38192	0.398468	-0.475853	0.479514	-0.297761	-0.375888	-0.416087	-0.394293	-0.418985	-0.418261	-0.512714	0.41043	0.368346	0.520795	-0.409587	-0.417293	-0.481253	0.465202	0.454983	-0.505953	0.378681
0.425482	0.449217	0.487572	-0.491027	-0.431066	0.471506	0.482762	0.480317	0.491166	0.502547	0.481977	-0.483018	0.439954	-0.415945	0.412857	-0.416767	-0.43402	-0.488094	-0.510448	-0.40443	-0.416609	-0.430477	0.383243	0.51061	0.501322	-0.490513	-0.402876	-0.409226	0.431915	0.430287	-0.444454	0.443277
0.361583	0.281598	0.433184	-0.3962	-0.392361	0.409004	0.423397	0.400303	0.442052	0.412367	0.427088	-0.396561	0.428454	-0.346038	0.371639	-0.32335	-0.419545	-0.484225	-0.424374	-0.43512	-0.403533	-0.411805	0.430579	0.440054	0.320369	-0.441105	-0.344339	-0.390278	0.365898	0.375407	-0.353655	0.382023
0.424473	0.486313	0.500218	-0.433764	-0.519419	0.498851	0.45837	0.506149	0.438912	0.434088	0.462976	-0.511615	0.507204	-0.430536	0.490405	-0.463263	-0.401314	-0.390273	-0.498963	-0.464869	-0.458142	-0.301006	0.475555	0.294275	0.405128	-0.382547	-0.481743	-0.52167	0.522794	0.318233	-0.498099	0.466858
0.409564	0.475739	0.48189	-0.382955	-0.445331	0.378394	0.456218	0.473536	0.504366	0.457072	0.395229	-0.443643	0.384077	-0.506317	0.393545	-0.42011	-0.400088	-0.281067	-0.497841	-0.397999	-0.402839	-0.49425	0.44258	0.47169	0.347941	-0.496261	-0.427821	-0.510458	0.431376	0.404072	-0.497118	0.435243
0.335311	0.367914	0.381785	-0.397959	-0.470564	0.323663	0.441823	0.410582	0.443366	0.455229	0.43154	-0.415755	0.423723	-0.492595	0.469872	-0.452874	-0.331402	-0.393077	-0.386718	-0.340886	-0.360855	-0.328879	0.47242	0.34273	0.414645	-0.378968	-0.399241	-0.372128	0.366011	0.431553	-0.370022	0.44087
0.39738	0.355152	0.455787	-0.449165	-0.477002	0.423106	0.409395	0.382465	0.409336	0.4147	0.403642	-0.432286	0.380136	-0.442461	0.464171	-0.500857	-0.400208	-0.400097	-0.389614	-0.392802	-0.48046	-0.447806	0.462126	0.480925	0.426195	-0.38713	-0.460125	-0.38353	0.457662	0.410732	-0.419214	0.442152
0.456748	0.427104	0.402333	-0.412934	-0.381417	0.480212	0.507704	0.451128	0.45368	0.440245	0.406223	-0.467748	0.413468	-0.450775	0.470043	-0.408427	-0.401771	-0.433276	-0.455083	-0.3649	-0.400003	-0.455362	0.409328	0.464411	0.448336	-0.432644	-0.388357	-0.453497	0.420593	0.407145	-0.478281	0.438847
0.398178	0.425979	0.334147	-0.499193	-0.460158	0.471501	0.36186	0.35963	0.419342	0.335713	0.408708	-0.499895	0.487575	-0.223978	0.458903	-0.471261	-0.301919	-0.442213	-0.338359	-0.368286	-0.444953	-0.250963	0.375527	0.51794	0.325449	-0.42236	-0.391567	-0.484659	0.509974	0.468199	-0.47305	0.520155
0.438218	0.415547	0.499691	-0.427314	-0.423901	0.421957	0.532538	0.436467	0.446392	0.453326	0.451554	-0.432476	0.524923	-0.490708	0.498614	-0.406317	-0.512908	-0.492127	-0.449152	-0.483198	-0.444151	-0.393646	0.421605	0.407853	0.479366	-0.503131	-0.413683	-0.383026	0.424206	0.509312	-0.485351	0.418609
0.395841	0.294273	0.476352	-0.345624	-0.432164	0.487882	0.515077	0.485358	0.391924	0.42493	0.403191	-0.369816	0.408357	-0.3696	0.441965	-0.37676	-0.407589	-0.465358	-0.501067	-0.391587	-0.41551	-0.485321	0.42984	0.338222	0.360721	-0.401099	-0.428052	-0.447902	0.481981	0.448858	-0.432901	0.45278
0.460872	0.444327	0.472116	-0.383907	-0.443892	0.389828	0.461219	0.404544	0.405152	0.370469	0.408595	-0.388147	0.442674	-0.399067	0.427384	-0.408183	-0.397534	-0.350267	-0.487249	-0.422711	-0.371033	-0.428933	0.364679	0.374081	0.434847	-0.451215	-0.469494	-0.417435	0.444951	0.444026	-0.443708	0.498979
0.456094	0.4141	0.502948	-0.532465	-0.497202	0.473672	0.497846	0.484175	0.422608	0.52215	0.495554	-0.400506	0.490092	-0.518354	0.446985	-0.464372	-0.451988	-0.472383	-0.465841	-0.398928	-0.447602	-0.50235	0.459702	0.431559	0.437642	-0.489698	-0.531824	-0.443304	0.450059	0.482975	-0.529794	0.409252
0.440405	0.501129	0.383631	-0.407313	-0.405206	0.416381	0.401982	0.382684	0.459516	0.422178	0.428031	-0.510805	0.389896	-0.414124	0.408856	-0.455777	-0.380488	-0.527329	-0.381421	-0.396355	-0.480866	-0.430744	0.426204	0.517462	0.443987	-0.428119	-0.471692	-0.440226	0.434139	0.375025	-0.39498	0.485686
0.483992	0.459137	0.416891	-0.443886	-0.477912	0.350098	0.445461	0.456805	0.451115	0.449399	0.368101	-0.386816	0.364218	-0.443533	0.389836	-0.303397	-0.382687	-0.487139	-0.423899	-0.404709	-0.455457	-0.378518	0.371533	0.33389	0.445417	-0.393185	-0.416187	-0.401233	0.458175	0.340879	-0.399674	0.327498
0.31863	0.423994	0.343132	-0.220076	-0.261205	0.368653	0.209195	0.285749	0.383814	0.321648	0.334456	-0.257822	0.329309	-0.280243	0.425934	-0.262129	-0.392576	-0.312043	-0.319509	-0.365531	-0.364291	-0.313699	0.358498	0.398731	0.257224	-0.321858	-0.333697	-0.404626	0.424924	0.380756	-0.261952	0.320138
0.396373	0.409113	0.469747	-0.423909	-0.442094	0.384687	0.320978	0.478888	0.345091	0.497202	0.501931	-0.47791	0.432275	-0.39154	0.471569	-0.511448	-0.502848	-0.400918	-0.442981	-0.418439	-0.432235	-0.317889	0.47179	0.337499	0.51128	-0.438175	-0.436258	-0.415174	0.392237	0.420265	-0.403074	0.433483
0.393697	0.418312	0.405551	-0.50219	-0.459474	0.371027	0.304127	0.431115	0.352037	0.441449	0.444785	-0.438593	0.415511	-0.464025	0.358102	-0.416552	-0.377877	-0.388051	-0.436083	-0.371722	-0.464517	-0.464985	0.428864	0.350117	0.403765	-0.462299	-0.38028	-0.418152	0.508925	0.388545	-0.387977	0.46514
0.413063	0.411287	0.443113	-0.433123	-0.412605	0.510459	0.51424	0.488116	0.483845	0.445424	0.447143	-0.538175	0.525534	-0.510566	0.436587	-0.390058	-0.358043	-0.471394	-0.483447	-0.515498	-0.412993	-0.400999	0.439969	0.566095	0.482032	-0.410747	-0.473717	-0.430105	0.419952	0.38571	-0.469213	0.46519
0.457465	0.433522	0.371146	-0.427896	-0.331419	0.428378	0.461484	0.391945	0.435798	0.474185	0.417351	-0.37865	0.428157	-0.402967	0.404476	-0.32869	-0.432805	-0.447839	-0.365646	-0.431525	-0.34047	-0.337697	0.353776	0.490111	0.384966	-0.432743	-0.389701	-0.424732	0.399858	0.346871	-0.417528	0.384423
0.453333	0.355226	0.433046	-0.378835	-0.465495	0.506375	0.404278	0.482535	0.489568	0.463177	0.415813	-0.477859	0.384275	-0.45439	0.46952	-0.356066	-0.478439	-0.441895	-0.422048	-0.458656	-0.414296	-0.31671	0.41415	0.505741	0.511357	-0.433018	-0.498585	-0.453463	0.465122	0.482505	-0.435971	0.448075
0.425581	0.374307	0.369643	-0.448759	-0.403435	0.362022	0.400083	0.464638	0.417863	0.453076	0.437312	-0.363946	0.397076	-0.469955	0.412199	-0.343817	-0.308064	-0.355153	-0.387028	-0.414822	-0.381732	-0.444224	0.418444	0.180059	0.324254	-0.425773	-0.425581	-0.455963	0.259922	0.355772	-0.334759	0.341421
0.401263	0.446641	0.407499	-0.451299	-0.459809	0.434847	0.352996	0.394877	0.36891	0.450503	0.433415	-0.42854	0.416467	-0.493272	0.407823	-0.488093	-0.391645	-0.411383	-0.385433	-0.420415	-0.42663	-0.308501	0.472054	0.540747	0.423926	-0.437168	-0.428043	-0.53849	0.438967	0.498302	-0.394062	0.447469
0.398339	0.434922	0.47598	-0.492899	-0.429869	0.365047	0.346135	0.483322	0.388813	0.363852	0.407165	-0.40225	0.453893	-0.514598	0.445787	-0.345212	-0.385524	-0.523998	-0.438847	-0.36937	-0.519775	-0.400124	0.549373	0.457072	0.474998	-0.470522	-0.448144	-0.41234	0.416264	0.351798	-0.39751	0.388212
0.494225	0.500054	0.508588	-0.440401	-0.44486	0.441952	0.427044	0.451093	0.466253	0.42729	0.473655	-0.428393	0.391928	-0.513816	0.518468	-0.52756	-0.430505	-0.476221	-0.452019	-0.420032	-0.445112	-0.441024	0.405985	0.517888	0.478467	-0.458109	-0.433513	-0.483979	0.494311	0.496324	-0.464037	0.384596
0.460918	0.395835	0.476607	-0.485856	-0.487287	0.468958	0.46418	0.43632	0.479219	0.449104	0.394635	-0.485776	0.534282	-0.395912	0.434225	-0.477296	-0.485117	-0.496565	-0.493874	-0.521616	-0.414925	-0.50214	0.385718	0.395287	0.454136	-0.448074	-0.447095	-0.378598	0.460246	0.435267	-0.448614	0.486156
0.496018	0.399839	0.470073	-0.434616	-0.454964	0.390132	0.429663	0.504182	0.478127	0.441636	0.425202	-0.432705	0.49922	-0.535096	0.428502	-0.52912	-0.483725	-0.49274	-0.434038	-0.411586	-0.419484	-0.444608	0.474587	0.417659	0.472294	-0.444544	-0.460633	-0.494483	0.411284	0.478039	-0.455043	0.435133
0.456346	0.38711	0.398076	-0.358828	-0.406584	0.441732	0.415922	0.362059	0.446907	0.447374	0.464618	-0.452868	0.373804	-0.442439	0.36214	-0.293431	-0.362193	-0.410147	-0.477022	-0.374997	-0.474189	-0.456943	0.376773	0.367557	0.387272	-0.393712	-0.433396	-0.358792	0.419195	0.450027	-0.427342	0.511192
0.458167	0.42857	0.477267	-0.41557	-0.493737	0.466627	0.463421	0.486048	0.488389	0.423316	0.441581	-0.409111	0.415342	-0.474418	0.500963	-0.499057	-0.48216	-0.436268	-0.487415	-0.52032	-0.414524	-0.336385	0.448175	0.456629	0.43298	-0.468281	-0.429974	-0.386519	0.478312	0.454399	-0.502038	0.36365
0.480618	0.461519	0.428987	-0.437334	-0.455745	0.442636	0.383075	0.371614	0.410359	0.470124	0.445666	-0.419699	0.40241	-0.398914	0.422391	-0.462345	-0.373131	-0.377583	-0.37402	-0.410432	-0.417159	-0.365706	0.429429	0.548716	0.365262	-0.383304	-0.515797	-0.510521	0.455339	0.456275	-0.363641	0.551242
0.367551	0.49555	0.431102	-0.334438	-0.439498	0.434889	0.48294	0.468532	0.461557	0.317557	0.368858	-0.435401	0.400053	-0.301206	0.382641	-0.268279	-0.348642	-0.386273	-0.39234	-0.449524	-0.367689	-0.381225	0.340068	0.314985	0.366159	-0.446735	-0.446273	-0.442748	0.298599	0.408676	-0.356864	0.35734
0.441476	0.370721	0.478776	-0.483969	-0.507332	0.407218	0.42538	0.40471	0.440607	0.426169	0.433009	-0.420645	0.495823	-0.501823	0.450366	-0.28342	-0.495226	-0.495878	-0.42053	-0.433476	-0.421582	-0.440055	0.372773	0.432246	0.427481	-0.491996	-0.485346	-0.494333	0.423899	0.531226	-0.458271	0.450729
0.44035	0.499253	0.436318	-0.425927	-0.492123	0.445671	0.508151	0.454354	0.438253	0.513585	0.450262	-0.479065	0.433896	-0.545974	0.448894	-0.374211	-0.429079	-0.493804	-0.461734	-0.514998	-0.534734	-0.417277	0.448054	0.345792	0.425073	-0.488449	-0.456642	-0.457869	0.508796	0.443736	-0.43371	0.477149
0.383142	0.335204	0.494828	-0.394659	-0.400711	0.503192	0.442637	0.470725	0.386053	0.466308	0.498256	-0.43924	0.411869	-0.386539	0.423261	-0.498162	-0.504056	-0.482527	-0.475971	-0.473581	-0.412858	-0.347488	0.378677	0.436628	0.499637	-0.458008	-0.429049	-0.38449	0.425291	0.470794	-0.38633	0.353404
0.515803	0.433869	0.432861	-0.477726	-0.497981	0.466411	0.434742	0.507317	0.413378	0.429309	0.451725	-0.509343	0.470521	-0.456151	0.423934	-0.479821	-0.443598	-0.469068	-0.439686	-0.445989	-0.435175	-0.475894	0.47043	0.383591	0.431883	-0.406784	-0.478625	-0.4952	0.451131	0.401382	-0.466763	0.419731
0.444821	0.380166	0.507733	-0.455344	-0.452628	0.469131	0.415603	0.500576	0.416171	0.468177	0.513597	-0.374504	0.42986	-0.432907	0.479125	-0.459203	-0.451157	-0.432109	-0.485938	-0.426506	-0.415771	-0.489909	0.436067	0.390955	0.460823	-0.503386	-0.520108	-0.398779	0.442371	0.385401	-0.421726	0.406311
0.471957	0.442844	0.459276	-0.429268	-0.454932	0.409805	0.417613	0.426303	0.482851	0.509291	0.429035	-0.474345	0.464584	-0.404307	0.433931	-0.536306	-0.466979	-0.518943	-0.485546	-0.465648	-0.419495	-0.467338	0.443314	0.449944	0.518715	-0.430439	-0.427741	-0.397166	0.480375	0.510597	-0.450248	0.467363
0.414586	0.516538	0.421572	-0.365966	-0.399839	0.544778	0.453724	0.516476	0.451722	0.422165	0.554882	-0.469655	0.313769	-0.35207	0.492774	-0.568387	-0.515016	-0.53177	-0.377901	-0.532284	-0.423814	-0.395741	0.4212	0.409426	0.509817	-0.475351	-0.416989	-0.377298	0.505825	0.425636	-0.430983	0.48338
0.378736	0.385472	0.3921	-0.297661	-0.280187	0.355346	0.410774	0.421617	0.401086	0.445333	0.351513	-0.40543	0.339219	-0.342436	0.45837	-0.162525	-0.321416	-0.400514	-0.46522	-0.429947	-0.363818	-0.431441	0.390161	0.431094	0.369108	-0.313885	-0.291649	-0.401556	0.296794	0.356516	-0.3734	0.303438
0.413587	0.354516	0.418041	-0.321162	-0.33873	0.334647	0.462693	0.419017	0.383168	0.370547	0.422346	-0.334527	0.335268	-0.364431	0.413052	-0.432875	-0.401138	-0.286249	-0.296	-0.412349	-0.419443	-0.401975	0.394691	0.449428	0.383773	-0.390474	-0.35389	-0.269322	0.381331	0.385158	-0.392442	0.278007
0.490904	0.427914	0.450717	-0.432339	-0.444344	0.440879	0.467668	0.485078	0.477074	0.487774	0.502442	-0.464819	0.452458	-0.496846	0.470068	-0.35815	-0.492132	-0.428346	-0.451976	-0.489425	-0.456137	-0.440794	0.443207	0.502302	0.47743	-0.495619	-0.450095	-0.512462	0.44534	0.450336	-0.477926	0.384073
0.417946	0.352466	0.435646	-0.403934	-0.446958	0.462431	0.425282	0.474376	0.434532	0.488739	0.431001	-0.487541	0.505376	-0.5121	0.410033	-0.532212	-0.434609	-0.421996	-0.433566	-0.410222	-0.481492	-0.408741	0.485284	0.430375	0.43151	-0.434371	-0.444637	-0.509435	0.457012	0.418754	-0.46101	0.415713
0.524914	0.475528	0.48153	-0.534404	-0.53156	0.463175	0.454589	0.532125	0.518968	0.472668	0.485413	-0.477811	0.505309	-0.396582	0.449694	-0.434817	-0.525173	-0.463761	-0.429902	-0.430645	-0.402179	-0.480495	0.502533	0.473859	0.450141	-0.451033	-0.509055	-0.43242	0.432323	0.501762	-0.493458	0.471934
0.408694	0.396919	0.43084	-0.432254	-0.462704	0.445051	0.427765	0.476916	0.515394	0.415714	0.433829	-0.48978	0.384781	-0.451169	0.48526	-0.483209	-0.489551	-0.441552	-0.502592	-0.396717	-0.39048	-0.390458	0.368521	0.409057	0.373619	-0.468363	-0.470666	-0.42855	0.433195	0.493427	-0.485621	0.393347
0.405626	0.386025	0.380331	-0.28054	-0.302655	0.395407	0.476731	0.472121	0.383111	0.509973	0.491782	-0.440094	0.468145	-0.431955	0.506946	-0.163516	-0.475031	-0.375057	-0.433018	-0.342069	-0.405006	-0.373194	0.37395	0.500837	0.37135	-0.379988	-0.440823	-0.264738	0.493158	0.42069	-0.450602	0.49611
0.478873	0.417968	0.43681	-0.512548	-0.435218	0.497129	0.465381	0.401352	0.498051	0.449682	0.401335	-0.388675	0.371538	-0.496446	0.404593	-0.433155	-0.4468	-0.404978	-0.362946	-0.448838	-0.393535	-0.557588	0.444823	0.338979	0.35627	-0.432821	-0.384998	-0.409446	0.463597	0.444225	-0.412386	0.478463
0.506584	0.471528	0.479468	-0.454596	-0.42364	0.369445	0.279515	0.447051	0.468783	0.428992	0.477986	-0.446386	0.519671	-0.469131	0.498755	-0.430943	-0.513149	-0.524037	-0.360655	-0.461152	-0.374423	-0.432805	0.330679	0.484342	0.47951	-0.408357	-0.324647	-0.533684	0.467342	0.50091	-0.471415	0.402287
0.434879	0.418452	0.37259	-0.398846	-0.332171	0.480791	0.368844	0.358173	0.379682	0.435853	0.471221	-0.336012	0.231026	-0.460794	0.416629	-0.310516	-0.449488	-0.362759	-0.426913	-0.374769	-0.376434	-0.399493	0.455491	0.466493	0.394196	-0.444762	-0.374146	-0.516836	0.455425	0.499279	-0.405758	0.397083
0.45856	0.339839	0.464225	-0.336367	-0.424549	0.428295	0.481319	0.394245	0.278926	0.393114	0.480545	-0.454532	0.429454	-0.395986	0.364661	-0.337805	-0.419492	-0.416396	-0.380897	-0.431464	-0.463797	-0.407616	0.38711	0.300502	0.465469	-0.385527	-0.455	-0.399124	0.430711	0.335391	-0.372476	0.371155
0.384212	0.500158	0.431048	-0.423384	-0.548318	0.492325	0.509694	0.454126	0.410339	0.372933	0.511907	-0.403878	0.45562	-0.3135	0.512047	-0.321886	-0.402267	-0.491281	-0.454266	-0.323434	-0.395803	-0.429773	0.383577	0.470851	0.493267	-0.444853	-0.447254	-0.519921	0.457076	0.503564	-0.39279	0.470217
0.427821	0.479718	0.492493	-0.44414	-0.493919	0.427884	0.329449	0.433431	0.435002	0.447607	0.444484	-0.470037	0.491513	-0.412965	0.415765	-0.481487	-0.395242	-0.410762	-0.409932	-0.47236	-0.516333	-0.421921	0.427749	0.403726	0.447904	-0.450927	-0.435268	-0.442211	0.475677	0.421935	-0.422062	0.38315
0.428999	0.480729	0.49656	-0.465442	-0.482995	0.442575	0.545906	0.487791	0.439674	0.449221	0.393162	-0.446143	0.425313	-0.444467	0.45236	-0.390508	-0.468792	-0.378311	-0.459026	-0.494377	-0.472778	-0.425209	0.469679	0.328344	0.435056	-0.424723	-0.392172	-0.46913	0.470059	0.483865	-0.497845	0.536161
0.47951	0.380235	0.394841	-0.373544	-0.408163	0.48647	0.448785	0.400897	0.482459	0.363633	0.411829	-0.401659	0.357625	-0.426927	0.431008	-0.490849	-0.523182	-0.448988	-0.385305	-0.474279	-0.44171	-0.393617	0.476373	0.293898	0.452227	-0.448355	-0.505259	-0.48358	0.419296	0.451531	-0.426068	0.535475
0.45237	0.420099	0.378375	-0.399077	-0.357015	0.459614	0.392641	0.439312	0.436994	0.308816	0.340594	-0.374624	0.246359	-0.380167	0.338212	-0.395787	-0.491111	-0.317119	-0.431957	-0.279166	-0.415289	-0.429274	0.429693	0.39402	0.397474	-0.430917	-0.467853	-0.422172	0.435692	0.367513	-0.470974	0.386752
0.445962	0.458996	0.479403	-0.472601	-0.426842	0.455848	0.515324	0.43139	0.469769	0.436713	0.487265	-0.422192	0.443881	-0.46124	0.501201	-0.417825	-0.528557	-0.387121	-0.406414	-0.507059	-0.46957	-0.315852	0.495223	0.433236	0.457648	-0.46861	-0.444166	-0.46693	0.459415	0.430126	-0.453917	0.443711
0.445968	0.321047	0.467493	-0.358539	-0.394314	0.462925	0.393729	0.390114	0.430816	0.43485	0.453008	-0.403038	0.443903	-0.39199	0.395608	-0.38781	-0.403697	-0.454547	-0.401131	-0.363418	-0.392947	-0.407634	0.3342	0.371284	0.428487	-0.447409	-0.448166	-0.439615	0.46062	0.353683	-0.437614	0.402462
0.393829	0.413129	0.358002	-0.400962	-0.349971	0.488537	0.415506	0.43686	0.468836	0.374682	0.367401	-0.4722	0.329367	-0.258221	0.427782	-0.387267	-0.37053	-0.252506	-0.521382	-0.364622	-0.442868	-0.516251	0.357285	0.347588	0.3328	-0.374578	-0.499709	-0.488726	0.381707	0.441676	-0.461442	0.544702
0.338571	0.324062	0.367372	-0.423861	-0.390774	0.371734	0.302794	0.378068	0.382178	0.318628	0.310636	-0.325878	0.350187	-0.238946	0.370341	-0.275147	-0.432562	-0.247963	-0.340483	-0.402769	-0.374095	-0.437574	0.330339	0.32429	0.387281	-0.32743	-0.376154	-0.306485	0.240637	0.4506	-0.349033	0.399531
0.449246	0.454484	0.423116	-0.430164	-0.398035	0.400961	0.341007	0.40729	0.463553	0.482367	0.427893	-0.490873	0.423011	-0.513088	0.466056	-0.477115	-0.448029	-0.454941	-0.490409	-0.435185	-0.450048	-0.433219	0.393462	0.498202	0.48071	-0.503022	-0.41164	-0.426951	0.470105	0.414075	-0.521622	0.380997
0.472476	0.456977	0.426123	-0.438967	-0.48879	0.503424	0.431914	0.482083	0.515166	0.445383	0.432313	-0.443703	0.477678	-0.450554	0.485649	-0.375897	-0.514491	-0.423012	-0.494343	-0.437143	-0.511667	-0.392505	0.516438	0.449348	0.487432	-0.460938	-0.396656	-0.455422	0.487224	0.472352	-0.457436	0.428522
0.416195	0.417034	0.26446	-0.419117	-0.44216	0.533557	0.395043	0.340242	0.187831	0.42837	0.426805	-0.454498	0.338231	-0.142765	0.227327	-0.417741	-0.265924	-0.117771	-0.324927	-0.361848	-0.402336	-0.276187	0.384855	0.586862	0.3538	-0.216586	-0.241939	-0.331486	0.417075	0.472678	-0.45929	0.496997
0.457476	0.343844	0.454244	-0.472208	-0.413594	0.463763	0.501178	0.456436	0.432278	0.474916	0.422745	-0.496267	0.44356	-0.380585	0.463514	-0.289885	-0.377996	-0.397532	-0.413622	-0.468768	-0.373327	-0.484179	0.352187	0.50253	0.457078	-0.473918	-0.461283	-0.435904	0.461746	0.432348	-0.401292	0.337631
0.472572	0.436607	0.476873	-0.396917	-0.502707	0.4591	0.39676	0.473039	0.416568	0.489577	0.498897	-0.420826	0.389197	-0.407159	0.454031	-0.354442	-0.417406	-0.402543	-0.498011	-0.445629	-0.406854	-0.440956	0.441096	0.422433	0.486522	-0.491955	-0.436599	-0.453109	0.432622	0.406529	-0.416527	0.365039
